%YAML:1.0
---
my_detector: !!opencv-object-detector-hog
   winSize: [ 64, 64 ]
   blockSize: [ 16, 16 ]
   blockStride: [ 8, 8 ]
   cellSize: [ 8, 8 ]
   nbins: 9
   derivAperture: 1
   winSigma: 4.
   histogramNormType: 0
   L2HysThreshold: 2.0000000000000001e-01
   gammaCorrection: 1
   nlevels: 64
   signedGradient: 0
   SVMDetector: [ -6.54223282e-03, -1.36159686e-03, -1.35460298e-03,
       -2.20166128e-02, -1.35578625e-02, -9.93362162e-03, 5.19590545e-03,
       2.06355844e-02, 3.80035397e-03, 3.47412587e-03, 8.70833918e-03,
       2.05580960e-03, -1.38069894e-02, 1.43051762e-02, -1.40213780e-02,
       2.58933008e-03, 1.55171677e-02, 2.30628462e-03, -2.60274997e-03,
       9.47927590e-03, 1.31363301e-02, -4.94024344e-03, -5.15817432e-03,
       5.61755802e-03, -2.76830164e-03, 9.65363439e-03, 6.53024018e-03,
       -8.00534338e-03, 1.39914555e-04, 9.23407264e-03, -2.23468291e-03,
       2.41724588e-02, -1.59781668e-02, -1.32241985e-02, 7.00670574e-03,
       1.83159963e-03, -2.48509273e-02, -6.79044379e-03, -1.47166075e-02,
       -2.02149805e-02, -1.68750174e-02, -2.20868401e-02,
       -1.95712652e-02, -1.53720332e-02, -3.23865488e-02, 2.99898721e-02,
       3.93787436e-02, 1.52370604e-02, 1.97336022e-02, 1.95463262e-02,
       4.31822054e-02, 3.51526327e-02, 2.60676648e-02, 1.71299856e-02,
       -2.72010844e-02, -1.43950833e-02, -1.00752544e-02,
       -1.20450594e-02, -9.06474609e-03, -2.44467352e-02,
       -3.15361023e-02, -1.71399247e-02, -2.78614685e-02, 6.21749274e-03,
       1.00781415e-02, -1.19985938e-02, -2.16507912e-02, -6.08445099e-03,
       6.89806091e-03, 4.08256380e-03, -7.84933509e-05, -4.96533886e-03,
       -1.37611125e-02, -4.35585110e-03, -2.56499313e-02,
       -3.45001556e-02, -8.52923185e-05, 1.87623519e-02, -1.32194639e-03,
       8.91621225e-03, -8.92929547e-03, 1.60045046e-02, 2.53643822e-02,
       1.14854928e-02, 4.99725565e-02, 3.63937318e-02, 3.64221372e-02,
       5.80266863e-02, 5.12800552e-02, 2.53736787e-02, -2.97058951e-02,
       -3.17361951e-02, -4.76242676e-02, -6.00565225e-02,
       -4.28470634e-02, -2.55320705e-02, -2.19411906e-02,
       -1.91989467e-02, -2.28325352e-02, -1.43252080e-02,
       -1.29646873e-02, -1.48170358e-02, -8.91041849e-03, 1.81570277e-03,
       2.79677287e-03, 2.21101679e-02, 1.42832315e-02, -4.65537328e-03,
       7.90397316e-05, -4.00031538e-04, -6.53960090e-03, 3.23619670e-03,
       1.73779782e-02, 4.18985598e-02, 3.46134230e-02, 4.15598042e-02,
       7.22646574e-03, -1.46151129e-02, -1.55048398e-02, -1.93692278e-02,
       -1.89771820e-02, -6.24616034e-02, -2.40737703e-02, 1.74822547e-02,
       1.87759735e-02, -1.00534856e-02, -1.87081322e-02, -1.66082941e-02,
       -2.42360383e-02, -9.90417227e-03, 1.35385245e-02, 3.19382399e-02,
       2.49410477e-02, 1.44763254e-02, -9.31597222e-03, -3.33496183e-03,
       -1.20514091e-02, -2.85394564e-02, -2.25814544e-02,
       -3.44257280e-02, -2.37387214e-02, 5.92039607e-04, -6.01601461e-03,
       -1.19028585e-02, 8.52654781e-03, -2.39972328e-03, -8.94402526e-03,
       -1.76375378e-02, -1.63898189e-02, 2.42172386e-02, 3.78975496e-02,
       2.84973718e-02, 9.50779486e-03, -1.60620250e-02, -1.76822077e-02,
       -2.51139365e-02, -3.74639444e-02, -4.75994535e-02,
       -5.60176559e-02, -3.20287831e-02, -1.37253711e-02,
       -1.55125177e-02, 4.39395495e-02, 2.50224266e-02, 3.42982169e-03,
       4.83499188e-03, 3.11467312e-02, 4.52779941e-02, 5.70436604e-02,
       3.60872485e-02, 3.30424570e-02, -5.84000070e-03, -1.33089274e-02,
       -2.18982249e-02, -2.51774173e-02, -1.87808648e-02,
       -4.00615223e-02, -1.84211303e-02, -1.57963979e-04,
       -1.65170487e-02, 1.81948277e-03, 1.21537149e-02, 5.73371770e-03,
       -5.42734750e-03, -6.98068878e-03, -1.59711782e-02, 7.66115263e-04,
       7.87450466e-03, 1.70694268e-03, -1.83852501e-02, 2.81458255e-03,
       -3.78803088e-04, -2.33270470e-02, 3.33758467e-03, -9.00901388e-03,
       -1.10796001e-02, -8.20370112e-03, -2.07176860e-02, 2.72599068e-02,
       2.35274509e-02, 9.76813864e-03, 1.43167153e-02, 1.55675178e-02,
       8.21774453e-03, 2.22507175e-02, 3.12699862e-02, 2.04594526e-02,
       1.09840333e-02, 1.87972840e-02, 6.44916529e-03, 6.03515655e-03,
       1.68591402e-02, -2.56983172e-02, -9.40356497e-03, 1.05920341e-02,
       5.53911272e-03, -7.01558543e-03, 1.49357496e-02, 1.25506921e-02,
       -1.99202858e-02, 1.05072828e-02, -8.34743585e-03, -7.32865417e-03,
       2.46236403e-03, -5.74206281e-03, 1.90564676e-03, 7.76869012e-03,
       4.42047510e-03, -1.71559136e-02, 3.37707251e-02, -2.84276810e-02,
       -2.69039776e-02, -1.66971087e-02, -3.06476722e-03, 1.19297784e-02,
       2.26213429e-02, 1.80234741e-02, 3.11157526e-03, 1.21705905e-02,
       -7.90823996e-03, -1.21745816e-03, 1.73610784e-02, 1.82046015e-02,
       1.55007774e-02, 2.22776309e-02, 1.78154949e-02, -1.41953249e-02,
       3.41156386e-02, -1.81852058e-02, -2.33043283e-02, -6.84816623e-03,
       1.41045880e-02, -1.23164523e-02, 3.27210827e-03, -5.12843981e-05,
       -2.47973073e-02, -2.98629724e-03, 3.46564897e-03, -6.85344730e-03,
       5.59914159e-03, 1.76115404e-03, -1.00079812e-02, -1.37264258e-03,
       -4.53559216e-03, -1.79893747e-02, 1.31493574e-02, -1.80785023e-02,
       -7.51759438e-03, 1.67157147e-02, 1.13943303e-02, -1.01247812e-02,
       2.11171899e-03, -1.08970581e-02, -2.24131588e-02, -1.19306594e-02,
       5.87576209e-03, -7.09102675e-03, 1.22925884e-03, -4.09594504e-03,
       -3.56698089e-04, 4.39772528e-04, -1.04389591e-02, -1.05371652e-02,
       2.28204876e-02, 2.67871539e-04, 1.55448057e-02, 1.91881079e-02,
       4.28138860e-03, -2.94373985e-02, -1.91386230e-02, -1.52495923e-02,
       -1.61763597e-02, -8.99930601e-04, -4.56298282e-03,
       -1.60387959e-02, -4.87380568e-03, -2.06125379e-02,
       -1.24569312e-02, -9.47860710e-04, -1.30415792e-02,
       -8.89007002e-03, -4.13942244e-03, 1.62027795e-02, 2.87913233e-02,
       1.61087979e-02, -1.31517323e-02, -3.30298133e-02, -2.22627819e-02,
       -1.35185448e-02, -9.09633189e-03, 1.18303075e-02, 8.49291508e-04,
       4.42560791e-04, 7.01102521e-03, -3.40945087e-02, 4.56534931e-03,
       1.58551894e-02, 2.50866972e-02, 3.48260701e-02, -4.82069142e-03,
       -1.65620213e-03, 1.61397159e-02, 3.58199663e-02, -1.70036394e-03,
       -3.74423526e-02, -2.57467553e-02, -3.44190933e-02,
       -4.03122902e-02, -2.92936377e-02, -1.21684913e-02,
       -1.76528506e-02, -1.91034023e-02, -3.22872475e-02,
       -1.54305389e-02, -2.21935171e-03, -2.59657041e-03, 8.76296964e-03,
       8.62217695e-03, 4.09811586e-02, 2.02392861e-02, 1.08414022e-02,
       -8.23800173e-03, -2.89319195e-02, -1.36064645e-02,
       -1.95502061e-02, -1.39140999e-02, -3.82620990e-02,
       -2.89175175e-02, -1.70812514e-02, -4.78796661e-03,
       -3.50791924e-02, 1.37408879e-02, 4.00079973e-02, 4.33863550e-02,
       6.28365651e-02, 4.89455611e-02, 3.37193385e-02, 2.40686238e-02,
       3.97737324e-02, 2.03411616e-02, -2.29201429e-02, -1.70164835e-02,
       -3.66921872e-02, -3.06924246e-02, -1.32574365e-02, 1.06080156e-02,
       -1.82582866e-02, -1.14832073e-02, -2.25672927e-02,
       -2.26113829e-03, -9.62043740e-03, -3.66521031e-02,
       -1.21981287e-02, -2.29484253e-02, -1.31019186e-02,
       -1.47132920e-02, -1.44211873e-02, -8.14597495e-03,
       -1.76816620e-02, -7.47838896e-03, -1.03904167e-02, 2.14147028e-02,
       1.25349564e-02, 3.73122003e-03, -1.44551666e-02, -3.35665140e-03,
       -1.26075661e-02, 2.35055969e-03, -1.99278421e-03, -6.42072409e-03,
       1.01199690e-02, 6.32878812e-03, 1.65221337e-02, 5.44872927e-03,
       5.74479345e-03, 1.10954158e-02, 1.83465760e-02, -3.65312770e-03,
       -1.96518674e-02, -9.65251308e-03, -2.36916933e-02,
       -3.67969018e-03, -2.10726587e-03, 4.78212675e-03, 9.85224172e-03,
       -2.39386372e-02, -3.79026718e-02, -4.43301946e-02,
       -4.82392497e-02, -6.65731803e-02, -6.71031550e-02,
       -4.11662608e-02, -2.33717635e-02, -2.98074596e-02, 5.29822968e-02,
       3.41712199e-02, 3.98173817e-02, 3.24352980e-02, 1.71117019e-02,
       4.56094518e-02, 5.33070974e-02, 5.85501939e-02, 6.22467250e-02,
       7.11993268e-03, -6.11493969e-03, -3.21086147e-03, -1.52974064e-02,
       -3.13273855e-02, -3.00731920e-02, -2.56273523e-02,
       -2.30487878e-03, 7.44722225e-03, 1.44755505e-02, -3.56444484e-03,
       -6.87539438e-03, -1.39274504e-02, -2.51548793e-02,
       -1.12359812e-02, -4.81787883e-03, 4.61945403e-03, 9.37306322e-03,
       -1.11317895e-02, -9.71599948e-03, -2.42571197e-02,
       -3.86119522e-02, -4.62280437e-02, -4.69439141e-02,
       -3.41317914e-02, -1.82073917e-02, -9.83717293e-03, 5.94697967e-02,
       3.73614877e-02, 5.44311032e-02, 5.33347726e-02, 2.73752604e-02,
       2.82103978e-02, 2.56020091e-02, 4.21727300e-02, 6.40755221e-02,
       -1.96134374e-02, -5.11131075e-04, -8.68917070e-03,
       -2.63628680e-02, -2.50835009e-02, -1.50009086e-02,
       -2.34732088e-02, -1.34574901e-02, -2.69910274e-03, 3.23785446e-03,
       1.06578209e-02, 1.98826077e-03, -5.42961806e-03, 1.88406520e-02,
       -1.69978030e-02, -4.55129985e-03, 9.78765171e-03, 1.41740832e-02,
       -6.31434051e-03, 1.18386571e-03, -2.84135155e-03, -2.03209277e-02,
       2.10731681e-02, -2.12230664e-02, -6.35125628e-03, 1.30667898e-03,
       -4.57255961e-03, 5.69165125e-03, 1.79960225e-02, 2.10287962e-02,
       -2.50247307e-03, 2.89778914e-02, 9.07203183e-03, 1.43252797e-02,
       2.29932517e-02, 3.05095464e-02, -7.06171943e-03, -1.51152583e-02,
       -7.69186951e-03, -2.66169272e-02, 1.46681061e-02, -1.60204973e-02,
       1.54409651e-02, 2.48977337e-02, 2.19246838e-02, -8.88792612e-03,
       5.11268806e-03, -6.63622003e-03, -2.56713503e-03, 9.39430203e-03,
       5.46947075e-03, 5.57634328e-03, 6.27554720e-03, -7.47084105e-03,
       1.41696446e-03, 1.21939536e-02, 2.59149098e-03, -5.27792983e-03,
       2.38652043e-02, 2.26439715e-05, 1.73480902e-02, 1.94717627e-02,
       -2.48332694e-03, -2.64163967e-02, 9.06798814e-04, -4.39156825e-03,
       1.35070091e-04, 6.64316677e-03, -1.50407967e-03, 2.04777112e-03,
       9.79054999e-03, -1.80839095e-02, -9.95496847e-03, 1.20065976e-02,
       1.60493124e-02, 1.17622651e-02, 4.32740599e-02, -3.55406851e-03,
       2.65183300e-02, 2.90038865e-02, -8.94337986e-03, -3.18752564e-02,
       -9.87321138e-03, -1.40062105e-02, -3.00234165e-02,
       -2.76558865e-02, -2.72193123e-02, -1.91317461e-02,
       -3.19882459e-03, -3.42760943e-02, 3.91355902e-03, 6.23940374e-04,
       -8.14728905e-03, 5.61846094e-03, -2.04552151e-02, -3.47472765e-02,
       -3.12795560e-03, 2.01269351e-02, 6.57152431e-03, -4.55275588e-02,
       -6.19348418e-03, -3.67752975e-03, -2.53544785e-02,
       -2.45351214e-02, -2.48874463e-02, -1.09083084e-02, 9.29887930e-04,
       -3.98155823e-02, 1.75759196e-02, 3.96491252e-02, 4.33333553e-02,
       7.71370158e-02, 4.04241867e-02, 3.25784013e-02, 3.05137895e-02,
       4.69094776e-02, 3.38605791e-02, -3.34113538e-02, -1.72984619e-02,
       -2.83791013e-02, -3.73052098e-02, -5.76569177e-02,
       -5.51898032e-02, -2.32181009e-02, -5.23613812e-03,
       -2.99013965e-02, -5.43865561e-03, 2.66151763e-02, 1.87910721e-02,
       3.31938975e-02, -1.43288812e-02, -2.62250621e-02, 1.16467790e-03,
       1.64852068e-02, 3.17273382e-03, -1.95775628e-02, 1.41709461e-03,
       -1.95742771e-03, -5.98611310e-04, 6.41989405e-04, -2.36471202e-02,
       -5.28920093e-04, 1.65606837e-03, -6.48226682e-03, 5.73221110e-02,
       6.98931813e-02, 5.60355559e-02, 5.34170456e-02, 6.19179849e-03,
       1.87603142e-02, 5.57029694e-02, 5.93215786e-02, 5.20713590e-02,
       -1.70077030e-02, 2.54116999e-03, 3.53166182e-03, 8.96987412e-03,
       -3.05660930e-03, -1.85930338e-02, -1.28682805e-02, 2.16575060e-03,
       -7.50880968e-03, 1.49011798e-03, -4.00172966e-03, 3.03060398e-03,
       -7.00630434e-03, -1.57396812e-02, -6.76616910e-04, 1.28623322e-02,
       1.20417932e-02, 1.09502980e-02, 2.46699434e-02, 3.07416841e-02,
       1.97767448e-02, -3.64822871e-03, -3.06247473e-02, -1.00114346e-02,
       2.01854669e-02, 3.06526087e-02, 2.34155878e-02, 3.51769961e-02,
       4.20259461e-02, 3.86427119e-02, -1.58155113e-02, -3.47018205e-02,
       7.60085694e-03, 3.53465416e-02, 4.19382527e-02, 3.09174024e-02,
       2.24929433e-02, 9.99180321e-03, 3.06057353e-02, 4.34642704e-03,
       -2.40151267e-02, 1.63661931e-02, 4.56153899e-02, 4.92627062e-02,
       3.57606113e-02, -1.44459307e-02, -1.56603418e-02, -4.18708241e-03,
       -1.51654612e-02, -3.84193882e-02, -1.84747316e-02,
       -2.84440387e-02, -1.14450250e-02, -1.29963979e-02, 3.44497226e-02,
       3.42407525e-02, 6.96193278e-02, 2.29655262e-02, -1.56681612e-02,
       3.40293683e-02, 8.50807279e-02, 8.09056237e-02, 4.61956821e-02,
       -3.71933132e-02, -3.80169339e-02, -8.75094440e-03,
       -1.08155711e-02, -3.23719755e-02, 8.27874523e-03, -4.27120039e-03,
       2.27909628e-03, -1.53361326e-02, 2.02400517e-02, 2.34191529e-02,
       5.73980436e-02, 5.37009388e-02, 2.07129437e-02, 2.33418215e-02,
       9.87397134e-03, 1.64897144e-02, 2.51426846e-02, -3.63710485e-02,
       -2.32082028e-02, -1.95466131e-02, -2.61105895e-02,
       -1.64944530e-02, -2.08884999e-02, -2.91847102e-02,
       -2.37282235e-02, -2.53768917e-02, 1.03864968e-02, 1.06582381e-02,
       5.15109785e-02, 3.85722332e-02, 1.74836833e-02, 3.11356690e-02,
       4.10907008e-02, 2.04300862e-02, 2.02571712e-02, -3.79783474e-02,
       -3.48328575e-02, -4.03320678e-02, -5.46408221e-02,
       -1.85175966e-02, -1.78544074e-02, -2.47152392e-02,
       -1.99689008e-02, -3.20415981e-02, -6.35726284e-03,
       -2.15137354e-03, 1.07626980e-02, 1.09587552e-03, 2.09054910e-02,
       2.05347259e-02, 1.34216230e-02, 1.59561038e-02, 1.07578617e-02,
       -1.50078470e-02, -2.49133371e-02, -2.11964063e-02,
       -3.39636244e-02, -4.66693472e-03, -1.91039592e-02, 5.08914655e-03,
       2.05185413e-02, 1.22262901e-02, -2.04654923e-03, -6.86933473e-03,
       6.08122395e-03, 9.25619062e-03, 3.15237232e-02, 3.40147689e-02,
       1.74838845e-02, 1.20893605e-02, 4.24741098e-04, -4.61596437e-03,
       -2.58345306e-02, -1.26159135e-02, -1.63291879e-02, 9.68964212e-03,
       -1.36327865e-02, 3.53708700e-03, 9.77921952e-03, 5.37214801e-03,
       -1.90543607e-02, -1.65349187e-03, -1.31122926e-02,
       -9.68338270e-03, 9.59145930e-03, 9.39042121e-03, -6.72753062e-03,
       2.79786089e-03, -1.10492501e-02, -3.63192917e-03, 1.02209030e-02,
       6.22059591e-03, -2.99149920e-04, 4.16815095e-02, 2.17203237e-03,
       1.03123486e-02, 9.99979582e-03, -1.39350316e-03, -1.24228355e-02,
       5.89278014e-03, -1.97847504e-02, -3.15360352e-02, 7.70916790e-03,
       4.14071139e-03, -1.22284573e-02, 1.79100467e-03, -1.52338464e-02,
       4.68842080e-03, 2.36203019e-02, 4.98698000e-03, -1.60978164e-03,
       4.65366580e-02, 5.38767595e-03, 2.38059554e-03, 1.91016011e-02,
       2.34168093e-03, -4.12511192e-02, -1.71470679e-02, -1.72482301e-02,
       -4.17915136e-02, -2.82199308e-02, -2.79666353e-02,
       -2.34592780e-02, -1.60585288e-02, -4.06306647e-02,
       -1.05422828e-02, -9.12538357e-03, -9.71096160e-05, 4.62717488e-02,
       4.02341075e-02, 3.93506810e-02, 1.31981941e-02, 9.27094836e-03,
       6.97335417e-05, -3.98712792e-02, -1.46493260e-02, -3.02517433e-02,
       -4.35094871e-02, -4.06256430e-02, -3.95615883e-02,
       -3.42911594e-02, -1.28926095e-02, -3.40400934e-02, 1.08136027e-03,
       2.76598311e-03, -1.38170703e-03, 3.19315158e-02, 3.89240868e-02,
       3.77988219e-02, 1.72061399e-02, 2.04583053e-02, 4.62044636e-03,
       -1.10512013e-02, -1.40005043e-02, -1.35428039e-02,
       -5.99430781e-03, 3.18262237e-03, -1.45600177e-03, -4.27568285e-03,
       -8.52316152e-03, -9.40892845e-03, 3.01073678e-02, 1.21702068e-02,
       1.56299043e-02, 1.83299445e-02, 2.00345390e-03, 2.47329008e-02,
       3.14671621e-02, 3.77372131e-02, 3.06656454e-02, 9.20733961e-04,
       -6.36056624e-03, -2.16054041e-02, -1.77954212e-02,
       -4.68335766e-03, -1.10748410e-02, -1.61020588e-02,
       -3.49405193e-04, 1.72061461e-03, 3.40633020e-02, 9.62478295e-03,
       -5.08690951e-03, 2.42718146e-03, -9.51625349e-04, 2.78383642e-02,
       2.78466158e-02, 3.54474783e-02, 3.19200717e-02, 2.62886155e-02,
       2.36390028e-02, 2.45460272e-02, -5.64923557e-03, -2.23421175e-02,
       3.11673223e-03, 1.28207486e-02, 2.23752614e-02, 1.79416873e-02,
       2.20756810e-02, 3.81316282e-02, 4.94929031e-02, -1.59245376e-02,
       -2.66563520e-02, 1.67943276e-02, 2.13554054e-02, 2.14248616e-02,
       1.35586597e-02, 2.19045524e-02, 1.54750450e-02, 1.24470685e-02,
       -6.26437599e-03, -2.90255900e-02, -8.79493775e-04, 1.39427353e-02,
       1.60474423e-02, 7.62473932e-03, 1.46324299e-02, 3.32838483e-02,
       3.37660760e-02, -2.27388833e-02, -4.42955643e-02, -7.16470927e-03,
       2.22854558e-02, 8.05920362e-03, 5.48385177e-03, 1.20784836e-02,
       3.28038000e-02, 8.51076469e-02, 3.98006961e-02, -8.68140021e-04,
       4.39347662e-02, 4.91672680e-02, 2.64598876e-02, 1.44697987e-02,
       -4.01770100e-02, -3.39317396e-02, 2.42807809e-03, -1.60253420e-03,
       -1.51096918e-02, 1.34948241e-02, -2.71688052e-03, -1.93849783e-02,
       -3.08718700e-02, 1.49988467e-02, 4.00918350e-02, 7.33753443e-02,
       2.96854675e-02, -7.67538324e-03, 1.46264248e-02, 3.64398323e-02,
       1.78886286e-03, 3.91724240e-03, -3.94515209e-02, -3.26090641e-02,
       -7.82439485e-03, -7.75014143e-03, -1.68919042e-02,
       -2.18656678e-02, -1.60830300e-02, -3.31176706e-02,
       -4.02826555e-02, -3.57116369e-04, 6.07614266e-03, 4.30230126e-02,
       5.34035079e-02, 2.28143577e-02, 4.72553968e-02, 4.50884290e-02,
       7.88738765e-03, 1.64667261e-03, -3.08549684e-02, -2.60579605e-02,
       -2.91807037e-02, -4.23463397e-02, -1.45744802e-02,
       -1.72668397e-02, -1.71406940e-02, -1.28586506e-02,
       -2.79840473e-02, 1.12572722e-02, 1.40320919e-02, 3.76445353e-02,
       4.36589532e-02, 1.13526909e-02, 1.85181461e-02, 2.64763534e-02,
       9.33513511e-03, 5.89445233e-03, -1.40463859e-02, -1.79902948e-02,
       -2.89002638e-02, -3.46818902e-02, -4.00013588e-02,
       -3.08025517e-02, -2.57602856e-02, -8.65689293e-03,
       -1.55192213e-02, -6.02305820e-03, -1.12395771e-02,
       -6.33381726e-03, 1.29161740e-03, 3.25018428e-02, 1.71359163e-02,
       6.38555689e-03, 3.85625381e-03, -3.92013323e-03, 1.02028705e-03,
       -1.61655750e-02, -6.93617668e-03, -1.00778351e-02, 1.30569879e-02,
       -8.28833878e-03, -6.00771839e-03, -1.25374645e-03, 6.48556883e-03,
       -3.16432468e-03, -6.02623541e-03, -1.99391972e-03, 9.02142655e-03,
       2.66316552e-02, 1.57240797e-02, 5.27881505e-03, 6.61778497e-03,
       -5.53895719e-03, -3.40203382e-03, -7.81547744e-03,
       -5.58043178e-03, -1.49910143e-02, 1.15658976e-02, -8.61901511e-03,
       -1.14057902e-02, -4.56713233e-03, -3.78058990e-04,
       -1.42321307e-02, 4.41346038e-03, -9.03402641e-03, -3.05306315e-02,
       7.84851087e-04, 6.29053591e-03, -6.28712866e-03, -1.56310736e-03,
       -1.78751573e-02, -2.60026637e-03, 2.11149827e-02, 6.80632377e-03,
       -4.64801723e-03, 4.11067232e-02, 1.55290691e-02, 1.71926729e-02,
       1.96832046e-02, -3.85035900e-03, -6.42942218e-03, -1.08425203e-03,
       -6.25191070e-03, -2.23918501e-02, -3.42459488e-03, 2.82958872e-03,
       -1.51870884e-02, -5.30057959e-03, -9.71431937e-03,
       -6.68609561e-03, 1.64656714e-02, 7.92827271e-03, -1.57180242e-02,
       4.37906310e-02, 7.87657779e-03, 9.78575647e-03, 9.27494653e-03,
       -9.39205475e-03, -3.97495925e-02, -1.56696569e-02,
       -2.84901466e-02, -2.95899436e-02, -3.11728865e-02,
       -2.43326239e-02, -2.23994963e-02, -1.06368409e-02,
       -3.44248377e-02, 1.04617495e-02, 2.08794493e-02, 1.01287253e-02,
       5.37197515e-02, 5.11876270e-02, 3.10510658e-02, 3.17294039e-02,
       2.63976585e-02, 1.46878278e-03, -3.61966826e-02, -1.69770550e-02,
       -2.58002691e-02, -4.14457954e-02, -5.94121292e-02,
       -3.88161205e-02, -2.73032505e-02, -1.95160564e-02,
       -3.23739052e-02, 1.61583815e-02, 2.19178610e-02, 1.34552950e-02,
       3.77149247e-02, 1.58665907e-02, 2.73372177e-02, 9.49534401e-03,
       1.59127098e-02, 7.53585389e-03, 3.64203425e-03, 4.52437857e-03,
       -1.43293859e-02, -9.18958522e-03, 8.90092924e-03, -1.86277588e-03,
       -7.66487187e-03, -3.79146403e-03, 2.26092036e-03, 4.13864590e-02,
       3.58500294e-02, 1.74505617e-02, 1.35175921e-02, 4.07870254e-03,
       3.06117311e-02, 4.16988768e-02, 3.37367803e-02, 3.22306901e-02,
       8.22503399e-03, 6.12320378e-03, -1.57677028e-02, -2.74430495e-02,
       -2.34970953e-02, -2.34804563e-02, -1.93858128e-02,
       -5.87557349e-03, -2.69225892e-03, 4.05000746e-02, 4.14038002e-02,
       1.36865918e-02, 9.94617213e-03, -1.03634754e-02, -9.01632104e-03,
       3.15260105e-02, 3.00582740e-02, 3.32429744e-02, 2.48918515e-02,
       2.48649027e-02, 1.75434463e-02, 1.37370666e-02, -1.89058781e-02,
       1.11594563e-02, 4.17944789e-02, 2.17308793e-02, 1.56614464e-02,
       2.97137797e-02, 3.88495624e-02, 3.92771997e-02, 2.04649754e-02,
       -3.52122262e-02, -9.00262874e-03, 2.79251728e-02, 1.24984011e-02,
       1.85258910e-02, 1.91826187e-02, 1.63411275e-02, 1.46645177e-02,
       3.04761473e-02, -2.89235022e-02, -1.57082304e-02, 1.36197433e-02,
       1.28434533e-02, 1.72768738e-02, 1.79927275e-02, 8.21770448e-03,
       1.46262692e-02, 4.31692414e-03, -4.67583723e-02, -3.35040875e-02,
       -3.62758338e-03, -7.72603322e-03, 1.05909363e-03, 6.35390282e-02,
       8.16741213e-02, 9.13217664e-02, 7.42503777e-02, 2.42778659e-02,
       1.77116655e-02, 2.70656068e-02, 6.52297400e-03, 2.30231043e-02,
       -1.15899518e-02, -3.52307409e-03, 4.27715573e-03, 5.71592012e-03,
       3.71992472e-03, -2.40181927e-02, -2.12264173e-02, -2.14368813e-02,
       -2.15250850e-02, 3.92646752e-02, 3.89686599e-02, 3.45292687e-02,
       1.48977563e-02, -4.01942171e-02, -3.34122404e-02, -8.77679791e-03,
       -1.45597244e-02, -1.13628608e-04, -1.81479137e-02,
       -2.18711589e-02, -3.58935073e-02, -4.55707014e-02,
       -6.03088997e-02, -4.67394516e-02, -5.07841557e-02,
       -3.96786146e-02, -2.91250106e-02, 3.10657378e-02, 3.60116065e-02,
       3.67811918e-02, 5.41751720e-02, 4.51790802e-02, 1.71021689e-02,
       8.69958196e-03, 6.21875701e-03, 1.40581392e-02, -1.24964882e-02,
       -1.55027760e-02, -2.83897221e-02, -4.71645966e-03,
       -1.27637582e-02, -2.83994451e-02, -2.81906687e-02,
       -1.59904193e-02, -1.57706775e-02, 9.86125786e-03, 1.57737229e-02,
       4.81075561e-03, 3.21553228e-03, -1.71234788e-04, -3.91621469e-03,
       -1.24471793e-02, -1.14255287e-02, -4.07688366e-03,
       -2.34067161e-02, -2.02734154e-02, -2.01117806e-02, 6.26237318e-03,
       -2.36443356e-02, -2.67038196e-02, -3.32159810e-02,
       -3.28347273e-02, -2.97810286e-02, -3.04358546e-03,
       -4.52483509e-04, 5.58763137e-03, 1.94965899e-02, 3.34690288e-02,
       1.58149321e-02, 1.08063575e-02, 1.37663400e-02, -2.42569204e-03,
       -1.61249973e-02, -5.20122191e-03, 8.23291671e-03, -9.02497303e-03,
       9.73268878e-03, -1.84170380e-02, -8.04179069e-03, 2.39506667e-03,
       -9.40448232e-03, -2.28990731e-03, 6.66386541e-03, 1.39266811e-02,
       2.91421209e-02, 1.25811277e-02, 1.16284741e-02, 9.73299239e-03,
       2.71513942e-03, -4.50509507e-03, -2.43556891e-02, -1.62343596e-04,
       5.35087520e-03, -4.37319465e-03, 1.67083163e-02, -8.66333302e-03,
       -7.27590406e-03, -4.59076744e-03, -1.92857273e-02,
       -1.52317462e-02, -5.67073282e-03, -5.29332273e-03,
       -2.40258444e-02, 2.72848550e-02, 1.27198426e-02, -4.30473918e-03,
       1.95034174e-03, -1.07392734e-02, -8.35555978e-03, 5.59597975e-03,
       9.85612534e-03, -1.79691389e-02, 4.41935509e-02, 4.31506941e-03,
       9.84047446e-03, 1.08390218e-02, -6.17854809e-03, -4.61043417e-03,
       3.07764299e-03, -5.82200428e-03, -2.55552102e-02, 5.63057372e-03,
       7.74585223e-03, -2.15389486e-03, 1.95230392e-03, -4.28366754e-03,
       2.06550900e-02, 1.00765731e-02, 1.32506927e-02, -2.05805898e-02,
       1.99115649e-02, -9.91260074e-03, 8.82730912e-03, 4.15952317e-03,
       1.15704574e-02, -4.10981923e-02, -1.89878233e-02, -1.40371583e-02,
       -2.53317524e-02, -2.80618686e-02, -2.31597535e-02,
       -1.36709064e-02, -1.10243047e-02, -3.21893096e-02, 2.10267715e-02,
       3.58214490e-02, 3.75153497e-02, 5.23431376e-02, 5.25846630e-02,
       4.41628098e-02, 2.88198646e-02, 3.33243087e-02, 1.77965537e-02,
       -2.62475088e-02, -1.47319147e-02, -2.00452711e-02,
       -3.01646739e-02, -3.62114683e-02, -2.50195768e-02,
       -2.33406406e-02, -2.08198708e-02, -3.55415940e-02,
       -1.71118993e-02, 6.17474457e-03, 8.88760574e-03, 1.05961077e-02,
       1.89349465e-02, -1.10277869e-02, -9.87645518e-03, -6.60443306e-03,
       -1.76916420e-02, 1.26207136e-02, 1.27387298e-02, 3.03699425e-03,
       -1.73667315e-02, -2.59087683e-04, -1.14688007e-02,
       -1.55247301e-02, 2.11521052e-03, 8.28553271e-03, 6.18775636e-02,
       5.62392250e-02, 5.39395586e-02, 6.10980690e-02, 1.05178552e-02,
       1.67258810e-02, 4.21992801e-02, 4.58052717e-02, 4.92457338e-02,
       -2.75262333e-02, -2.09020395e-02, -2.59563141e-02,
       -3.88840213e-02, -4.81120907e-02, -5.73251806e-02,
       -4.87683117e-02, -3.40596549e-02, -2.09358018e-02,
       -7.32206390e-04, 1.83440733e-03, 8.66029412e-03, -7.24231498e-03,
       -6.69765249e-02, -1.85278021e-02, 9.07925609e-03, -3.54658044e-03,
       1.04511371e-02, 2.12922469e-02, 9.36613232e-03, 3.40867117e-02,
       6.35363758e-02, 2.30468763e-03, 1.05434852e-02, 1.26960995e-02,
       1.33543368e-02, 1.62573028e-02, 7.39217829e-03, -7.13219168e-03,
       1.80617254e-02, 3.38971727e-02, -9.48867481e-03, 1.25513365e-02,
       5.08688623e-03, -7.29495380e-03, -6.68098731e-03, -9.81686451e-03,
       -1.21537056e-02, -6.21367432e-03, 1.84002034e-02, -5.23984581e-02,
       -1.75220277e-02, -3.27002676e-03, -7.25581078e-03, 4.62973630e-03,
       -2.11413484e-02, -2.42851451e-02, -2.12502349e-02,
       -1.48789342e-02, -4.55391966e-02, -2.35164743e-02,
       -1.33945895e-02, -2.72292197e-02, -1.86108332e-02, 4.97780107e-02,
       4.96789366e-02, 5.74468002e-02, 5.06917387e-02, 3.66176292e-02,
       5.31843975e-02, 2.62045134e-02, 8.73987656e-03, 1.16538629e-02,
       -9.36514232e-03, -6.69853296e-03, -1.32028721e-02,
       -2.53410377e-02, -4.02910747e-02, -1.70422681e-02,
       -2.44833287e-02, -2.13775393e-02, -1.97124239e-02,
       -3.51064489e-03, 5.18919388e-03, -6.11809455e-03, -1.81219541e-02,
       -1.19915511e-02, 2.24554799e-02, 1.24759944e-02, -2.55053677e-03,
       -5.24746347e-03, -2.96053328e-02, -1.83635969e-02,
       -3.16224098e-02, -5.46183102e-02, -6.00871295e-02,
       -2.08588410e-02, -2.76924409e-02, -2.30237227e-02,
       -2.91563328e-02, 2.13213712e-02, 3.29247750e-02, 1.90295409e-02,
       1.00374536e-03, 3.26294731e-03, 1.90756433e-02, 6.09516166e-04,
       2.88992422e-03, 4.68845479e-03, -8.09233356e-03, -1.63058494e-03,
       -4.30660322e-03, 4.77085263e-03, -9.99169773e-04, -2.22309167e-03,
       -1.21597806e-02, -1.07049271e-02, -1.60491318e-02, 1.94984267e-03,
       1.59609374e-02, 5.37534570e-03, -1.76907312e-02, -2.31931526e-02,
       1.78133007e-02, -1.75834622e-03, 6.03383547e-03, 3.10606410e-04,
       -7.29213422e-03, -5.78447478e-03, -9.10649914e-03,
       -1.39524303e-02, 5.11892233e-03, 5.85276284e-04, -1.23593537e-02,
       -3.85693414e-03, -5.03488258e-03, -1.19533238e-03, 8.93001154e-04,
       6.91804430e-03, 1.81866027e-02, -8.53723008e-03, 1.53627647e-02,
       1.82525619e-04, -2.72370642e-03, -1.08215166e-03, -2.07145792e-02,
       -6.99545816e-03, -1.29690729e-02, -1.26859201e-02, 8.06864642e-04,
       3.35280522e-04, -8.40421417e-05, 3.06849927e-03, -1.07881408e-02,
       6.68413145e-03, 2.10604933e-03, 7.20322598e-03, 2.91045755e-03,
       -1.34327984e-03, 2.14159992e-02, 2.83443625e-03, 4.86169523e-03,
       1.54205710e-02, 5.89894922e-03, 3.55115929e-03, -1.26951945e-03,
       -2.45526507e-02, 5.15284529e-03, 1.53940069e-02, 4.03675111e-03,
       9.01503302e-03, 7.36825494e-03, -1.21856236e-03, -1.91194067e-05,
       -1.09569822e-02, -1.92883480e-02, 2.06722803e-02, 3.44152050e-03,
       1.03746506e-03, 5.10104420e-03, -1.19337963e-03, 2.74657141e-02,
       1.52382171e-02, 9.35097411e-03, -7.47303013e-03, 3.51162106e-02,
       -8.10228381e-03, 1.11905523e-02, 8.95769987e-03, 2.11021043e-02,
       -9.56069119e-03, -6.79804757e-03, -1.75255984e-02,
       -3.99766713e-02, 1.15584088e-02, -2.43170690e-02, -7.88209122e-03,
       -9.85858496e-03, -4.22299607e-03, -8.83783621e-04, 9.98650119e-03,
       8.21231958e-03, -2.24294681e-02, 3.79533283e-02, -2.67023798e-02,
       -2.73366080e-04, -1.12211774e-03, -2.15431955e-03,
       -5.87467616e-03, -9.74476896e-03, -1.58985797e-02,
       -2.56639794e-02, -1.12265497e-02, -8.38665850e-03,
       -4.57329443e-03, -5.92974108e-03, -1.19046280e-02,
       -5.69654023e-03, -3.34283744e-04, 7.61538371e-03, 1.78461149e-02,
       4.02856655e-02, 7.29254819e-03, 2.62378436e-03, 1.23471655e-02,
       -8.02939525e-04, -3.22018340e-02, -1.65208932e-02,
       -1.36168739e-02, -3.38311233e-02, -2.99719907e-02,
       -2.69741248e-02, -1.51639571e-02, -1.68674272e-02,
       -3.13716419e-02, -3.67360003e-03, 4.88748075e-03, 2.54541673e-02,
       2.50602383e-02, 3.47946025e-02, -6.28307788e-03, -3.40908836e-03,
       2.98689678e-03, -4.12798300e-03, -2.05669012e-02, -1.95715427e-02,
       -2.30734609e-02, -2.92121023e-02, -3.36065851e-02,
       -4.13690656e-02, -3.16681415e-02, -1.22266887e-02,
       -6.67784689e-03, 1.01252664e-02, 1.71602163e-02, 1.75259039e-02,
       2.42383461e-02, -3.60697098e-02, 1.29431095e-02, 2.33959872e-02,
       1.95800383e-02, 2.63569839e-02, -1.69134960e-02, -1.70560752e-03,
       -2.12972239e-02, -2.50294320e-02, -1.29136937e-02,
       -4.73069139e-02, -4.12923843e-02, -2.07133833e-02,
       -2.73395162e-02, 4.08207923e-02, 6.55342713e-02, 6.58705309e-02,
       4.14086133e-02, -5.96903404e-03, 1.59032773e-02, 6.05017599e-03,
       1.00180991e-02, 8.39979015e-03, -9.31041129e-03, -4.98147332e-04,
       6.58522840e-05, 1.79117508e-02, -2.89144833e-02, 1.22776697e-03,
       -7.02643581e-03, -5.87802893e-03, 3.65356170e-03, -1.49915246e-02,
       1.83275342e-03, -5.39465109e-03, 6.51572319e-03, -2.60758754e-02,
       -1.20751178e-02, -3.98770208e-03, -1.84868723e-02,
       -1.75853856e-02, 1.47720529e-02, 5.09334281e-02, 4.38975245e-02,
       3.27289365e-02, -1.07235210e-02, -5.26591064e-03, -2.05894969e-02,
       -1.82083268e-02, -1.35789225e-02, 1.43712563e-02, 5.02547473e-02,
       3.68229598e-02, 1.84756871e-02, -3.49526703e-02, -1.93369936e-03,
       -4.43141675e-03, -4.36610915e-03, -1.02714561e-02,
       -5.84906142e-04, 1.34974960e-02, 1.14054782e-02, 3.38369794e-03,
       6.94763241e-03, 5.18612526e-02, 1.66843385e-02, 2.46979936e-04,
       -3.33852856e-03, -1.55213820e-02, -1.18706170e-02,
       -2.02347133e-02, -4.28334847e-02, -4.30855639e-02, 1.11091661e-03,
       -1.19083757e-02, -1.24671208e-02, -1.62125677e-02, 1.72461998e-02,
       4.54762019e-02, 3.95823494e-02, 4.13495786e-02, -6.72444841e-03,
       5.27093112e-02, 1.78654008e-02, 1.21754166e-02, 1.09758340e-02,
       -1.43302465e-02, -7.62297725e-03, -1.76396742e-02,
       -3.88439819e-02, -3.60824540e-02, 8.50244891e-03, -9.76514630e-03,
       -2.21232940e-02, -1.64690241e-02, 3.62211606e-03, 1.16535798e-02,
       1.01670288e-02, -3.81932454e-03, -1.49518559e-02, 3.02341580e-02,
       6.77713612e-03, 1.09320460e-02, 6.22819923e-03, -1.03258882e-02,
       1.13506732e-03, 1.23154395e-03, -1.33104459e-03, 2.08498742e-02,
       -9.14256275e-03, -1.75738353e-02, -8.61293636e-03,
       -8.30289349e-03, 7.49029964e-03, 1.35585321e-02, 1.48577057e-02,
       1.64507842e-03, -1.04816547e-02, 3.97574045e-02, 9.65247303e-03,
       5.04354062e-03, 2.16347002e-03, -2.10928917e-02, -3.34920711e-03,
       4.06833459e-03, -8.12606700e-03, 3.94476717e-03, -2.06339434e-02,
       -2.06306092e-02, -1.19223762e-02, -2.58537140e-02, 4.65891603e-03,
       1.21007040e-02, 1.08928634e-02, 1.13622500e-02, 2.29782499e-02,
       1.01623861e-02, -3.53302737e-03, 4.62840253e-04, 3.11320601e-03,
       1.15037337e-02, 1.67017393e-02, 3.00958240e-03, -1.95030998e-02,
       5.05127944e-03, 3.09081865e-03, -1.75287423e-03, -8.77642166e-03,
       -2.20373599e-03, -1.24434810e-02, 1.38813294e-02, 1.22138271e-02,
       1.23564200e-02, 1.00473426e-02, -1.47750112e-03, -4.98631783e-03,
       -4.70490381e-03, -1.59340259e-02, 8.05101451e-03, 2.54464447e-02,
       -2.16178410e-03, -3.04036681e-02, 1.63186155e-03, -1.34218596e-02,
       -1.12632858e-02, -1.78205464e-02, -1.38178263e-02,
       -9.34419811e-01 ]
