%YAML:1.0
---
my_detector: !!opencv-object-detector-hog
   winSize: [ 64, 64 ]
   blockSize: [ 16, 16 ]
   blockStride: [ 8, 8 ]
   cellSize: [ 8, 8 ]
   nbins: 9
   derivAperture: 1
   winSigma: 4.
   histogramNormType: 0
   L2HysThreshold: 2.0000000000000001e-01
   gammaCorrection: 1
   nlevels: 64
   signedGradient: 0
   SVMDetector: [ 1.34485355e-02, 4.13605431e-03, 6.69275830e-03,
       -4.97012213e-03, 1.13010434e-02, -1.33308873e-03, 3.25306542e-02,
       1.40546327e-02, 1.57178193e-02, 2.50357538e-02, 5.77021483e-03,
       1.95170566e-02, -6.24271575e-03, 1.06447162e-02, -4.82692057e-03,
       3.23333032e-02, 1.82043239e-02, 2.74281316e-02, -1.37048203e-03,
       -2.38153618e-03, 1.37777766e-02, -1.18002668e-02, 8.61006137e-03,
       -2.12856550e-02, 1.25238840e-02, 8.18435010e-03, 6.17348868e-03,
       5.84240677e-03, 5.79435192e-03, 2.73666549e-02, -1.05076144e-02,
       1.35706952e-02, -2.68327743e-02, 2.66776811e-02, 1.08517148e-02,
       1.44002223e-02, -2.08188524e-03, -6.46652607e-03, 2.12882156e-03,
       -2.09731739e-02, -2.91599762e-02, -1.33997286e-02,
       -1.70317828e-03, -5.88528533e-03, -2.26172316e-03, 1.32501321e-02,
       9.72607173e-03, 2.13188641e-02, 1.12916073e-02, 2.10376438e-02,
       3.71226780e-02, 2.46870276e-02, 9.40874312e-03, 5.73418755e-03,
       -1.55983604e-02, -6.49661757e-03, 3.13782156e-03, -1.87132619e-02,
       -3.95576097e-02, -3.66828404e-02, -6.83820620e-03,
       -1.37588140e-02, -1.89930741e-02, 1.93811562e-02, 1.42731583e-02,
       2.15700343e-02, 4.43305727e-03, -1.39300693e-02, 1.81215408e-03,
       1.64063200e-02, 1.31576918e-02, 1.26608899e-02, 2.08181632e-03,
       -7.23126065e-03, -1.00378720e-02, -2.28387769e-02,
       -3.14188972e-02, -4.24302509e-03, -9.48838983e-03,
       -6.27242820e-03, -3.15079512e-03, 1.01632681e-02, -4.34044981e-03,
       5.18099125e-03, 3.15193720e-02, 6.29743608e-03, 1.02285072e-02,
       1.07412972e-02, 1.42819742e-02, 1.81910656e-02, 8.48817639e-04,
       -1.90615039e-02, -1.66216996e-02, -2.15440877e-02,
       -5.80450930e-02, -2.87834611e-02, -1.69884842e-02,
       -4.53450903e-03, 2.11048429e-03, 9.49859247e-03, -1.07128946e-02,
       3.80147574e-03, 5.20060351e-03, -2.28270311e-02, 5.81055041e-03,
       -1.00209995e-03, 6.52660895e-03, 1.70807447e-02, -1.26665514e-02,
       -2.07587667e-02, -2.09866576e-02, -5.79645205e-03,
       -4.20095865e-03, 9.39531531e-03, -6.38763979e-03, 1.21695362e-03,
       -1.06677483e-03, -2.66560763e-02, -2.22675707e-02,
       -1.45541448e-02, 1.22555783e-02, -5.85144712e-03, -7.94142298e-03,
       -7.64157390e-03, -1.23942392e-02, -1.84706319e-02,
       -6.57265680e-03, -1.60507783e-02, -1.69382766e-02,
       -7.48583931e-04, -2.18721945e-02, -2.49012210e-03,
       -1.79673675e-02, -1.14808427e-02, 1.28029403e-03, -1.81525107e-02,
       -1.81250032e-02, 6.80272141e-03, 3.21463794e-02, 2.92479107e-03,
       -1.49927856e-02, -3.22163515e-02, -3.34491022e-02,
       -2.24222131e-02, -1.49003919e-02, -1.49598466e-02,
       -1.17081199e-02, -4.08083375e-04, 1.63208079e-02, 1.40702091e-02,
       4.66036331e-03, -8.22205935e-03, -1.38110667e-02, -1.57424267e-02,
       -2.41904072e-02, -3.03453188e-02, -1.20287100e-02,
       -2.16485020e-02, -2.39516925e-02, -1.21581573e-02,
       -2.34717503e-02, -1.78140420e-02, -3.88402794e-03,
       -2.98023783e-03, 2.68165860e-03, 3.31068970e-02, 4.64694127e-02,
       1.77661832e-02, -4.09681117e-03, -1.59318317e-02, -9.47272591e-03,
       -2.13463586e-02, -1.81080345e-02, -2.35647298e-02,
       -1.01685813e-02, -9.56398807e-03, -1.30599076e-02,
       -4.41378588e-03, -1.52646247e-02, -2.44558044e-02, 5.61857456e-03,
       -8.98928847e-03, -1.23886159e-02, 1.18761156e-02, 2.47105695e-02,
       -8.34614690e-03, 5.10945916e-03, -8.30253679e-03, 2.29655067e-03,
       -7.72044761e-03, -1.31257968e-02, -1.10983141e-02,
       -1.56092262e-02, -1.25138415e-02, -3.55914198e-02,
       -1.03185698e-02, -1.65799502e-02, -5.61306393e-03, 1.18748657e-02,
       8.92697647e-03, -1.96569785e-03, 8.71520769e-03, 4.35701460e-02,
       2.14270726e-02, 3.19656245e-02, 1.92547794e-02, 6.71335775e-03,
       -2.19281074e-02, -1.16359210e-03, -1.00577008e-02,
       -2.28298586e-02, 4.94098244e-03, -1.98818650e-02, -3.06420564e-03,
       -4.68422147e-03, -2.64005810e-02, 8.90001934e-03, 4.78382036e-03,
       1.42173395e-02, 1.30018955e-02, 4.22209315e-02, 4.51716129e-03,
       4.41420451e-03, -2.51742708e-03, 7.39936996e-03, 5.88427251e-03,
       1.37000461e-03, 1.06312968e-02, -1.63481701e-02, 9.73435119e-03,
       -1.20453918e-02, -2.33811885e-02, -3.41712981e-02,
       -1.11939609e-02, 5.27079776e-03, 1.03521189e-02, 1.02613168e-02,
       -3.19289044e-03, 3.74897085e-02, 1.21919708e-02, 1.63767319e-02,
       1.18898125e-02, 2.12396076e-03, 6.10753056e-03, -2.16182461e-03,
       5.73388115e-03, -2.40539871e-02, 9.88595467e-03, -7.12603331e-03,
       1.88049476e-03, -1.64599381e-02, -3.97690572e-03, -2.24189920e-04,
       2.47144420e-03, 9.66815371e-03, -1.85621697e-02, -6.27941685e-03,
       -1.75701287e-02, 4.52945055e-03, 7.91754294e-03, 7.54569145e-03,
       1.11266794e-02, 1.56391580e-02, 2.36479566e-02, -1.03268689e-02,
       3.74419591e-03, -2.21428182e-02, 1.62745826e-02, 1.24317529e-02,
       1.25520527e-02, -5.44845313e-03, 1.33006531e-03, 1.04840370e-02,
       -1.52028231e-02, -4.81729582e-03, -1.06185786e-02, 7.37874629e-03,
       -2.86327279e-03, -6.28245249e-03, 1.87358446e-02, 1.44260116e-02,
       3.61876972e-02, 2.47279946e-02, 3.91333997e-02, 1.65891543e-03,
       2.43315361e-02, 1.58276390e-02, 1.75451487e-02, -1.56079521e-02,
       -7.58216411e-05, -1.09924054e-04, -1.47954589e-02,
       -3.83300334e-02, -2.19208188e-02, -1.07816199e-03,
       -5.35165425e-03, -2.03104224e-02, -1.99686992e-03, 1.14638926e-02,
       1.71124861e-02, 1.51550965e-02, -1.91212688e-02, 3.69836902e-03,
       2.47008838e-02, 1.74128953e-02, -5.03679272e-03, -1.07192202e-02,
       2.08930578e-03, 1.17623238e-02, 3.35848250e-04, -1.50257032e-02,
       -1.87822375e-02, 4.13440925e-04, -4.95459186e-03, -1.83140859e-02,
       3.28425616e-02, 4.75974940e-02, 5.56885824e-02, 3.95947956e-02,
       1.39961392e-02, 1.00712879e-02, 2.80858222e-02, 2.68929973e-02,
       2.12576967e-02, -3.30954865e-02, -2.13569291e-02, -1.99807938e-02,
       -1.26211122e-02, -4.75832634e-02, -2.75959596e-02,
       -1.96085572e-02, -1.34991566e-02, -2.27515697e-02,
       -2.71581132e-02, -1.83927789e-02, -4.70604375e-03, 2.32400727e-02,
       -3.75572615e-03, 2.73214784e-02, -1.22829145e-02, -5.49221784e-03,
       -1.05237663e-02, -2.44053807e-02, 4.51967446e-03, -4.44821606e-04,
       1.76429581e-02, -1.73340645e-02, -1.25165936e-02, -1.24095716e-02,
       -8.99842475e-03, -2.51482688e-02, -7.52902683e-03, 2.83204559e-02,
       3.54301669e-02, 6.19704239e-02, 5.16887046e-02, 2.87804380e-02,
       -2.15700716e-02, -1.13119958e-02, -1.41024971e-02,
       -1.20533919e-02, -1.97830833e-02, -1.90841723e-02,
       -5.12857875e-03, -1.93594061e-02, -3.21323052e-03,
       -2.70649772e-02, -1.53620467e-02, -5.55761624e-03,
       -9.67550557e-03, -1.35916080e-02, -4.82055219e-03, 1.67400558e-02,
       -8.10021244e-04, 4.57740109e-03, -2.92117093e-02, -2.56663747e-02,
       -2.27670223e-02, -3.08290171e-03, -3.93161643e-03,
       -3.41796456e-03, 1.72842275e-02, 2.31094053e-03, 3.01289745e-03,
       -2.26196274e-02, -1.52067970e-02, -8.12134985e-03, 9.41553619e-03,
       -4.92183585e-03, 4.13432298e-03, 1.76534578e-02, -5.10221440e-03,
       2.82206275e-02, -4.35143244e-03, 4.62573301e-03, 3.12407734e-04,
       -4.32996964e-03, -3.97881679e-03, 5.16909547e-03, 1.52698597e-02,
       3.09216976e-03, 9.60448012e-03, -2.05021701e-03, -5.34150330e-03,
       -1.11275865e-02, -1.98073778e-02, -9.17069800e-03,
       -6.74424274e-03, -9.52130742e-03, -2.42843945e-02,
       -8.92386399e-03, 1.42072633e-06, -8.33567791e-03, -2.14572437e-02,
       2.56923828e-02, 1.44929234e-02, 3.07531133e-02, 1.80981997e-02,
       -1.61200692e-03, 2.91965734e-02, 2.82177869e-02, 3.33549678e-02,
       2.96234097e-02, -4.85430392e-05, -4.64116503e-03, 1.08926697e-02,
       1.38598937e-03, -2.23991591e-02, -1.43433968e-03, 6.40132418e-03,
       7.56812142e-03, 1.28346281e-02, -4.72834043e-04, 5.58966119e-03,
       2.01629344e-02, 7.14145927e-03, 7.39236735e-03, 1.08885448e-02,
       1.70528591e-02, 1.03989495e-02, 3.33635486e-03, -2.31313799e-02,
       -9.68776364e-03, -1.03561934e-02, -3.52211259e-02,
       -2.77025290e-02, -2.41519008e-02, -1.61417555e-02,
       -9.40081384e-03, -2.35703774e-02, 2.99455859e-02, 1.93526708e-02,
       5.27839176e-02, 3.97027209e-02, 1.30034452e-02, 2.98772585e-02,
       3.33144814e-02, 3.28835398e-02, 4.27747518e-02, -1.39515670e-02,
       -1.85399260e-02, 1.39995920e-03, -2.79971585e-02, -3.49311419e-02,
       -7.37958029e-03, -9.13003273e-03, -8.98123346e-03,
       -4.32525109e-03, 3.79213411e-03, 1.26606517e-03, 1.07796276e-02,
       -1.39622744e-02, 3.05992886e-02, 3.95650137e-03, 8.47213529e-03,
       9.81722772e-03, 6.38490869e-03, -1.22136790e-02, -1.94036085e-02,
       -5.96108381e-03, -2.71916967e-02, 4.72874194e-03, -1.66760292e-02,
       -1.96144986e-03, -1.62968971e-02, -9.97191109e-03, 1.32092601e-02,
       3.92550696e-03, 3.09140813e-02, 1.63424097e-03, 2.89726704e-02,
       2.12108437e-02, 2.73976251e-02, 1.96046885e-02, 2.43463572e-02,
       -9.55035444e-03, -2.33012792e-02, -8.14076792e-03,
       -2.89120059e-02, 4.63917339e-03, -1.02821896e-02, 1.04585346e-02,
       -6.09719381e-03, 2.40127789e-03, -1.77753866e-02, 2.31600343e-03,
       3.69501533e-03, -1.70846842e-02, -2.17808988e-02, -1.20430700e-02,
       3.42819514e-03, -1.12954983e-02, -1.86881498e-02, -2.75820540e-03,
       1.31219858e-03, 1.60230603e-02, 1.96873751e-02, 2.30057649e-02,
       -1.07684743e-03, 1.59687027e-02, 1.06145646e-02, -1.28599687e-03,
       -4.41690208e-04, 4.79772175e-03, 6.56572124e-03, -2.16428824e-02,
       -1.12305591e-02, -2.64605489e-02, 1.53335917e-03, -5.32208430e-03,
       -1.08849676e-02, -4.48384351e-04, 1.23554682e-02, 2.49502938e-02,
       4.16675583e-02, 7.15296715e-02, 1.85189191e-02, 2.21468583e-02,
       1.64912511e-02, 1.05200091e-03, -3.13289911e-02, -2.28210855e-02,
       -1.35989655e-02, -1.82966776e-02, -3.19179334e-02,
       -2.41870955e-02, -8.96582939e-03, -1.08638555e-02,
       -3.36666107e-02, -1.02718538e-02, 3.84755665e-03, 7.78099755e-03,
       2.57044472e-02, -1.08544473e-02, -3.77215724e-03, 6.68341806e-03,
       7.82705378e-03, -1.34343170e-02, -2.44731940e-02, -7.21796369e-03,
       -3.74840992e-03, 6.68677734e-03, 4.01513837e-03, -6.49636425e-03,
       -8.72853212e-03, -4.63989144e-03, -2.13385392e-02, 2.26244312e-02,
       3.63122858e-02, 4.16376293e-02, 8.61839801e-02, 4.71386909e-02,
       2.80198287e-02, 1.96486432e-02, 2.26937421e-02, 1.77601390e-02,
       -2.73445752e-02, -3.42959561e-03, -1.27843209e-02,
       -4.10853792e-03, -3.63979116e-02, -1.41206859e-02,
       -1.87388286e-02, -9.61682014e-03, -2.84080617e-02,
       -7.02958414e-03, 1.81925688e-02, 1.75373256e-03, 2.87419427e-02,
       9.52425506e-03, -5.35706198e-03, -4.19242382e-02, -3.23153138e-02,
       -2.47747861e-02, -1.15154049e-04, 1.25712983e-03, -1.59159712e-02,
       1.19745908e-02, -1.75199769e-02, -6.20659580e-03, -4.08219919e-03,
       7.35660130e-03, 6.71836874e-03, 2.39341669e-02, 3.87743339e-02,
       1.00943428e-02, 3.47566605e-02, 1.64455790e-02, 2.22277455e-02,
       3.01282760e-03, 1.55034540e-02, 2.22876426e-02, 1.30975423e-02,
       1.46412421e-02, -3.59184202e-03, -2.18930561e-03, -7.80359330e-03,
       -4.52667382e-03, -2.98903286e-02, -2.09005401e-02,
       -1.49504212e-03, 1.40417842e-02, 6.18410064e-03, 3.95470345e-03,
       1.09231463e-02, -2.33225282e-02, 1.33462474e-02, -7.98590574e-03,
       3.48095712e-03, -8.52898869e-04, 2.99035348e-02, 3.49673554e-02,
       1.16278501e-02, -2.70594901e-04, -1.82082821e-02, 1.10547070e-03,
       -3.34246061e-03, 9.05358139e-03, 1.78773031e-02, 2.10406799e-02,
       3.41565274e-02, 3.41921225e-02, 2.14526709e-02, -2.86476854e-02,
       -8.14348646e-03, 3.36647546e-03, 1.91424508e-02, 1.85940675e-02,
       1.57179106e-02, 8.81723780e-03, 1.92592237e-02, 6.88487478e-03,
       -2.42775548e-02, 1.95768680e-02, 1.75376292e-02, 2.61566769e-02,
       2.26718523e-02, -8.52424186e-03, -1.28231300e-02, -2.44832784e-03,
       -9.53905378e-03, -3.63892280e-02, 1.08828573e-02, 1.77221617e-03,
       4.99754632e-03, 3.42190661e-03, 1.90962553e-02, 2.72486340e-02,
       5.75372279e-02, 2.90474668e-02, -1.92906354e-02, 1.11963069e-02,
       2.97433250e-02, 3.70742120e-02, 2.71734409e-02, -1.59279499e-02,
       -1.15280589e-02, 1.25766257e-02, 7.17487838e-03, -1.84157994e-02,
       2.41328310e-02, 1.13102263e-02, 1.05381804e-02, -5.98998461e-03,
       3.19233816e-03, 2.31715408e-03, 3.18186022e-02, 2.82466002e-02,
       1.12811662e-02, 3.65297236e-02, 1.46595994e-02, 6.80406857e-03,
       1.16275903e-02, -2.68322974e-02, -2.65542138e-02, -6.75151963e-03,
       -2.25454643e-02, -3.72291580e-02, -1.97210833e-02,
       -2.44503096e-02, -2.65447069e-02, -2.46346314e-02,
       -4.83724382e-03, -2.35693893e-04, 4.03391235e-02, 3.38559821e-02,
       3.95913981e-02, 5.28183095e-02, 2.28503309e-02, 1.03951944e-02,
       -8.83763278e-06, -3.30833904e-02, -3.25414091e-02,
       -1.24165453e-02, -1.94687489e-02, -2.80934256e-02,
       -2.96899155e-02, -3.62444110e-02, -2.74679065e-02,
       -3.35786231e-02, 4.41477820e-03, 2.23562983e-03, 2.57657450e-02,
       7.65772816e-03, 2.60612704e-02, 1.06158834e-02, 7.31749367e-03,
       2.37333146e-03, 1.01762535e-02, -5.56505332e-03, -1.58775710e-02,
       -9.57681425e-03, -2.76799854e-02, 1.65209081e-03, -2.51743719e-02,
       -7.14073051e-03, -9.58047528e-03, 3.89672979e-03, 2.47459812e-03,
       7.11184647e-03, 3.16837206e-02, 2.26139221e-02, 2.30374075e-02,
       -3.13300197e-03, -5.67318313e-03, -2.50604236e-03, 2.15634564e-03,
       -1.25357173e-02, -7.71332486e-03, -6.34126365e-03,
       -2.14513484e-02, 8.33427347e-03, -3.36735249e-02, -1.81412827e-02,
       -2.22871881e-02, -1.00076329e-02, -1.86275132e-02,
       -1.15632825e-02, -7.13369902e-03, -2.61783935e-02,
       -2.62490306e-02, -2.71525383e-02, -1.07692610e-02,
       -1.65842529e-02, -2.33863480e-02, -1.73220523e-02,
       -9.86606535e-03, -2.23687224e-04, 2.85304412e-02, 5.62222451e-02,
       1.98390651e-02, 1.24906385e-02, -5.83499263e-04, -1.98260173e-02,
       -8.05736240e-03, -1.00132879e-02, -7.80466525e-03,
       -3.09362803e-02, -4.00445797e-02, -2.88137458e-02,
       -5.99290431e-03, -4.81960224e-03, -9.67747997e-03,
       -2.77302857e-03, -2.85883993e-03, 4.83753998e-03, 2.86107846e-02,
       6.43738806e-02, 2.24322155e-02, 2.39073616e-02, 1.38100684e-02,
       -9.84751154e-04, -2.96218637e-02, -2.01884639e-02,
       -2.53916569e-02, -1.46529954e-02, -2.30882168e-02,
       -6.44103251e-03, -1.58845466e-02, -1.37542402e-02,
       -3.12474929e-02, -3.38516082e-03, 8.29438432e-05, -6.08668430e-03,
       4.80094440e-02, 1.52436420e-02, 1.03199966e-02, -4.08467557e-03,
       -4.07284359e-03, -8.55033286e-03, -2.12903321e-02,
       -1.56574901e-02, -2.62497887e-02, -1.08214328e-02,
       -1.11627318e-02, -9.39827040e-03, -9.52171627e-03,
       -9.17194504e-03, -1.88074596e-02, 8.87717027e-03, 1.90962423e-02,
       -4.22010105e-03, 5.00064716e-02, 1.40509270e-02, 3.58592346e-02,
       9.28430818e-03, 2.48886645e-03, 6.29486563e-03, -6.14914671e-03,
       -1.12457890e-02, -2.52824090e-02, 6.13073353e-03, -1.45586231e-03,
       2.04778300e-03, -1.25520153e-03, 2.40983604e-03, 3.31298797e-03,
       6.11238088e-03, 1.23274291e-03, -8.59185960e-03, 1.04007134e-02,
       1.77979916e-02, 2.90630870e-02, 1.14090955e-02, 1.27144931e-02,
       1.15780039e-02, -5.28585585e-03, -7.67240813e-03, -2.59899013e-02,
       3.11127165e-03, -2.25858972e-03, 1.16159990e-02, -5.76823391e-03,
       -3.98199260e-03, -3.11187911e-03, 2.07208563e-03, -1.32348109e-02,
       -1.82787757e-02, -1.24155986e-03, 4.88819554e-03, 3.53150107e-02,
       1.64635722e-02, 7.25673931e-03, 3.33381607e-03, 1.75280962e-02,
       2.26297174e-02, 1.93487760e-02, 2.50511197e-03, -1.17997313e-02,
       7.37096975e-03, 4.74363798e-03, 1.19585982e-02, 1.27261505e-02,
       1.37524307e-02, 2.78493520e-02, 3.60425711e-02, 9.68095753e-03,
       -3.75109911e-02, -3.73611622e-03, 8.13412480e-03, 2.39423197e-02,
       2.13379897e-02, 7.70710176e-03, 1.29952934e-02, 1.24454182e-02,
       -6.05580118e-03, -1.10258497e-02, 1.54784163e-02, 1.15968529e-02,
       5.80060622e-03, 3.41069256e-03, 1.64583251e-02, 2.33868565e-02,
       2.66887285e-02, 7.11865490e-03, -3.42899784e-02, 1.84045767e-03,
       1.27891283e-02, 9.58469044e-03, 9.58768930e-03, 4.31691529e-03,
       1.76756065e-02, 4.58352305e-02, 2.61715911e-02, -1.87545605e-02,
       8.59764032e-03, 1.74466483e-02, 2.08421126e-02, 1.34658050e-02,
       -1.79033726e-02, -1.11339185e-02, 1.98106728e-02, 2.10745987e-02,
       -1.81303788e-02, 1.36446021e-02, 5.03691705e-03, 3.37808649e-03,
       -1.28820287e-02, 1.13828704e-02, 1.90673675e-02, 4.34119590e-02,
       2.86735892e-02, -7.56277656e-03, 1.08103864e-02, 2.04055179e-02,
       8.49968940e-03, 8.98760464e-03, -1.38676455e-02, -4.55847569e-03,
       2.60889679e-02, 2.00510863e-02, -2.93710213e-02, -9.45631042e-03,
       -7.33617367e-03, -3.77241918e-03, -1.10805957e-02,
       -1.01707987e-02, -2.31966074e-03, 4.70592305e-02, 4.59631756e-02,
       4.55435105e-02, 5.24219237e-02, 2.16028541e-02, 4.18013381e-03,
       -2.20254250e-03, -2.28345897e-02, -2.80174576e-02,
       -1.37938997e-02, -1.65511612e-02, -2.80355979e-02,
       -1.88339651e-02, -2.65082400e-02, -2.30549201e-02,
       -1.60379224e-02, 1.43358647e-03, 1.03415681e-04, 3.70234996e-02,
       4.12580818e-02, 3.02266795e-02, 2.34940536e-02, 9.85738449e-03,
       4.98096051e-04, 1.15827366e-03, -2.39094868e-02, -2.65065059e-02,
       -1.84152648e-02, -2.33286992e-02, -4.81806211e-02,
       -2.87998728e-02, -2.99190283e-02, -2.97051780e-02,
       -1.46416295e-02, 5.72447665e-03, 8.63327086e-03, 2.05236394e-02,
       1.30338063e-02, 1.87338218e-02, 1.00876559e-02, 4.58479207e-03,
       -1.56313798e-03, 6.92426926e-03, -1.56340767e-02, -2.01117713e-02,
       -5.70830703e-03, -1.83016602e-02, 6.62038149e-03, 3.81764461e-04,
       -2.20884942e-03, -1.72411725e-02, -1.63960066e-02, 2.57797452e-04,
       -4.28144820e-03, 1.41724208e-02, 8.01126845e-03, 2.70410758e-02,
       4.29757731e-03, 4.66463948e-03, -4.29716287e-03, 6.66408846e-03,
       -1.56330355e-02, -2.43923031e-02, -5.12532610e-03,
       -1.30258100e-02, 1.43251335e-02, -1.78730188e-04, 4.46014758e-03,
       -9.57582146e-03, -8.77741724e-03, -1.08364550e-02,
       -3.22440104e-03, -4.70946124e-03, -2.66094301e-02,
       -3.54501344e-02, -1.50782159e-02, -2.65098573e-03,
       -4.79936227e-03, -1.28845200e-02, -9.12473828e-04, 3.40445852e-03,
       1.02153141e-02, 2.07367148e-02, 4.86240312e-02, 3.78085785e-02,
       2.99400259e-02, 1.63458697e-02, 1.57578220e-03, -8.83760117e-03,
       -6.66616904e-03, -9.44295805e-03, -3.13459300e-02,
       -3.25847007e-02, -1.93496067e-02, -1.01270983e-02,
       -1.07554551e-02, -9.77068022e-03, 2.10745842e-03, -1.93361833e-03,
       1.36507051e-02, 1.14284428e-02, 2.29370575e-02, 1.17745847e-02,
       7.92752765e-03, -5.14917774e-04, 1.32426305e-03, -1.66477356e-02,
       -9.08468012e-03, -1.67416781e-02, -4.35015466e-03,
       -2.48559844e-02, 3.40713654e-03, 8.84380541e-04, -2.96051055e-03,
       -1.16288532e-02, 1.76641382e-02, 3.17886136e-02, 8.65053572e-03,
       4.75654304e-02, 1.85872689e-02, 4.93027903e-02, 3.80972810e-02,
       2.10818015e-02, 1.68985538e-02, -1.90023072e-02, -1.64351705e-02,
       -1.99983027e-02, -2.60148738e-02, -5.04049547e-02,
       -1.76042691e-02, -2.15337928e-02, -2.49633379e-02,
       -1.99445840e-02, 6.15173252e-04, 1.07258847e-02, 1.80374074e-03,
       1.14167286e-02, -1.76251191e-03, 2.54490599e-02, 1.92575157e-02,
       4.47369460e-03, 2.38001905e-03, 4.87430440e-03, 9.21760872e-03,
       -1.03391204e-02, 3.74291418e-03, 2.15799268e-03, 3.02114077e-02,
       1.56048145e-02, 1.03883827e-02, 8.42526089e-03, 1.22044683e-02,
       9.06781666e-03, -8.87687970e-03, 9.05894116e-03, -4.17588651e-03,
       4.59634475e-02, 3.69570740e-02, 1.77794565e-02, 6.34319661e-03,
       -3.63182509e-03, 2.20654556e-03, -1.64864492e-02, -1.91942118e-02,
       -2.51364149e-02, 7.17145018e-03, 1.52846370e-02, 1.13723176e-02,
       8.60845961e-04, 1.22721530e-02, 1.38090346e-02, -9.99556947e-03,
       -6.74838200e-03, -3.59357968e-02, 1.51902921e-02, 3.32589261e-02,
       5.75869717e-03, 7.21279532e-03, 1.83074903e-02, 1.77222881e-02,
       1.09102149e-02, 8.79207533e-03, -9.62581858e-03, 2.22269073e-02,
       2.55815666e-02, 7.31550297e-03, 5.27048297e-03, 3.56154554e-02,
       3.07983533e-02, 3.96440737e-02, 2.86190324e-02, -2.31870264e-02,
       -7.55286659e-04, 1.32810622e-02, 8.89280345e-03, 1.39832254e-02,
       1.86154619e-02, 1.26075400e-02, -5.18828351e-03, 2.54178158e-05,
       -3.30081955e-02, 7.71224499e-03, 2.32617203e-02, 2.86754756e-03,
       1.91340805e-03, 2.58056410e-02, 1.90000460e-02, 1.24601442e-02,
       6.95312116e-03, -3.10284346e-02, -1.62462126e-02, 1.44207664e-03,
       -1.53723150e-03, 1.34301232e-03, 3.52508575e-02, 4.04447429e-02,
       6.11202158e-02, 5.45798279e-02, 1.27390604e-02, 1.27734977e-03,
       3.82719538e-03, 2.44774320e-03, 8.90237186e-03, -2.93496437e-03,
       4.66397498e-03, 2.63617747e-02, 3.33285630e-02, -2.08142232e-02,
       -1.58457216e-02, -1.67479832e-02, -4.86435788e-03,
       -4.68253065e-03, 2.96438634e-02, 2.93812975e-02, 2.34986134e-02,
       2.41552703e-02, -2.49533951e-02, -3.78899947e-02, -1.61019601e-02,
       -8.27962533e-03, -5.95207559e-03, -6.25758804e-03,
       -1.76291424e-03, -6.17352343e-05, -5.05876308e-03,
       -4.78351079e-02, -4.44280840e-02, -2.09890362e-02,
       -1.26567390e-02, -1.71028897e-02, 1.33595709e-02, 1.93243455e-02,
       5.92007563e-02, 7.09984303e-02, 4.77435999e-02, 2.40095444e-02,
       5.29542472e-03, 7.08738994e-03, 1.61919165e-02, -1.92007367e-02,
       -2.37247460e-02, -1.18148401e-02, -4.78379894e-03,
       -1.87197011e-02, -2.10128613e-02, -1.84322800e-02,
       -1.73450876e-02, -5.97502058e-03, 1.65641252e-02, 1.15113044e-02,
       3.07675395e-02, 3.15908827e-02, -5.65303271e-05, -1.70933027e-02,
       5.15511434e-04, 1.55895087e-03, 6.47329679e-03, -1.54753942e-02,
       -2.94612870e-02, -1.91896372e-02, -1.19068511e-02,
       -3.27183492e-02, -3.37283500e-02, -2.43609343e-02,
       -2.18546633e-02, -1.38598150e-02, -7.74416886e-03,
       -1.17992302e-02, 8.44917074e-03, 2.40809023e-02, 3.88952270e-02,
       3.55999474e-03, 4.38347459e-03, -6.02023676e-03, 5.62943984e-03,
       -1.10307466e-02, -2.11302284e-02, -3.21251340e-03,
       -4.00953647e-03, 6.89178379e-03, -1.88519619e-02, -6.00044569e-03,
       -1.00563038e-02, -5.27296169e-03, -2.93873274e-03,
       -1.17599312e-02, 6.39904710e-03, 1.23608476e-02, 3.18462215e-02,
       3.12533346e-03, 1.03188062e-03, -8.77753273e-03, -5.47709875e-04,
       -9.91552602e-03, -1.04029346e-02, -3.05061718e-03,
       -1.86455119e-02, 4.28223331e-03, -1.41272889e-02, -9.10928007e-03,
       -4.68387362e-03, -7.69845396e-03, -6.66624401e-03,
       -8.03098362e-03, -5.39022218e-03, -2.07538940e-02,
       -1.18338261e-02, -1.61103010e-02, -1.03242928e-03,
       -1.30451447e-03, -4.27564280e-03, 1.06433863e-02, 1.14704866e-03,
       1.89857185e-02, 1.93177797e-02, 3.67524959e-02, 1.88494683e-04,
       1.43855345e-02, 1.09103266e-02, 8.74008425e-03, -2.13456457e-03,
       -9.15129762e-03, -3.61918658e-03, -2.32482627e-02,
       -1.26570184e-02, -1.94515884e-02, -3.39932228e-03, 2.88439775e-03,
       4.40866407e-03, 1.10137109e-02, 5.65319730e-04, 1.03706419e-02,
       1.48785710e-02, 1.22653404e-02, -2.69342065e-02, 1.92392583e-03,
       1.58159214e-03, 8.12990032e-03, -1.24273980e-02, -1.03663076e-02,
       -1.00261504e-02, -7.52039440e-03, -2.15688106e-02,
       -3.26510635e-03, -1.06202392e-02, -1.72587112e-02,
       -1.62915327e-02, 6.52190577e-03, 1.85314994e-02, 1.67195424e-02,
       4.49440740e-02, 5.08380085e-02, 5.13669290e-02, 3.55993286e-02,
       2.02094000e-02, 4.95702354e-03, -1.88815966e-02, -1.94640867e-02,
       -2.01458670e-02, -1.44025190e-02, -4.40136269e-02,
       -2.64950749e-02, -2.33355947e-02, -2.34837383e-02,
       -2.31150985e-02, -1.17360502e-02, -3.42866709e-03,
       -1.33580817e-02, 9.84830875e-03, 1.52288808e-03, 2.58839130e-03,
       -9.66823474e-03, -1.12983501e-02, -1.82120465e-02, 2.47700792e-03,
       7.10255001e-03, -3.62301711e-03, 7.60026975e-03, -5.62880654e-03,
       7.40872091e-03, 1.13263009e-02, 1.12208091e-02, 3.11762746e-03,
       3.43637988e-02, 3.21245342e-02, 2.53425092e-02, 3.91046591e-02,
       -1.01722181e-02, 2.20910944e-02, 4.16739658e-02, 1.92217603e-02,
       2.63283197e-02, -1.64190121e-02, -1.11267092e-02, -1.54435877e-02,
       -1.55457333e-02, -2.91050281e-02, -2.85711158e-02,
       -2.28059702e-02, -1.14710797e-02, -1.77341364e-02,
       -5.01191150e-03, -6.55836891e-03, 7.77857797e-03, 1.73062067e-02,
       -2.16480326e-02, -2.06283052e-02, -8.97537830e-05,
       -1.02061331e-02, -9.11703985e-03, 1.36416359e-02, 1.22601502e-02,
       1.39722871e-02, 2.11864021e-02, -2.15185136e-02, 2.04690192e-02,
       2.31924448e-02, -1.36996119e-03, 2.55330611e-04, 1.22140842e-02,
       1.84596963e-02, 2.85864230e-02, 4.71038781e-02, -1.91636290e-02,
       8.96400027e-03, 1.12173492e-02, -7.80468062e-03, -8.13274644e-03,
       -1.14709353e-02, -7.74827367e-03, 6.21679239e-03, 2.32002474e-02,
       -2.88724694e-02, -1.64619414e-03, 1.16268545e-03, -1.52021274e-02,
       -1.88977942e-02, -1.15619358e-02, -9.84456018e-03, 3.31055187e-03,
       2.61129849e-02, -1.84715297e-02, 1.62292831e-03, -3.61313554e-03,
       -2.28659827e-02, -2.36030705e-02, 4.50090058e-02, 5.72738945e-02,
       5.97311184e-02, 6.19575940e-02, 4.75610327e-03, -6.35625701e-03,
       -5.74129773e-03, -2.05861451e-03, 2.05167988e-03, 7.16293836e-03,
       1.81354452e-02, 1.89059768e-02, 7.82233570e-03, -4.04884405e-02,
       -3.75547446e-02, -1.23322997e-02, -8.52466747e-03,
       -1.29075907e-02, 9.82569065e-03, 1.88521650e-02, 1.24804676e-02,
       1.71528738e-02, -2.20497716e-02, -7.30836904e-03, -9.78245307e-03,
       -8.95204861e-03, -7.44366180e-03, -7.16139935e-03, 4.73535759e-03,
       -1.22136599e-03, -2.51874067e-02, -7.67617971e-02,
       -4.43334840e-02, -2.30405014e-02, -1.22566465e-02,
       -1.20679047e-02, 2.80793011e-02, 3.12770531e-02, 4.49129753e-02,
       3.42258401e-02, 2.81659197e-02, -1.87228399e-03, 8.03720858e-03,
       7.28484476e-03, 9.50780977e-03, -3.46694607e-03, -1.60800107e-02,
       -1.12732435e-02, -8.59379675e-03, -1.42409587e-02,
       -2.52077393e-02, -1.38144754e-02, -8.27879459e-03,
       -2.85273674e-03, 3.17159411e-03, 1.58979781e-02, 1.79164968e-02,
       -5.56026399e-03, 1.17776659e-03, -9.99668334e-03, 1.16975803e-03,
       -4.11815301e-04, 4.73801279e-03, -1.08035021e-02, -1.29799796e-02,
       -1.30047565e-02, -3.49311009e-02, -2.96317972e-02,
       -3.78927030e-02, -1.48371663e-02, -8.08951724e-03,
       -5.54001285e-03, 1.62803681e-05, -5.45839220e-03, 5.96733065e-03,
       4.24353266e-03, 2.95592900e-02, 3.06066545e-03, 2.11890019e-03,
       1.07935048e-03, 2.39885226e-03, -7.78081222e-03, -5.97436959e-03,
       2.65872129e-03, -1.66057218e-02, 1.83512419e-02, -1.26295900e-02,
       -1.36138115e-03, 3.41270911e-03, -7.40144728e-03, 4.92464809e-04,
       -1.04541122e-03, 6.76384661e-03, -1.35042090e-02, 1.12734903e-02,
       -1.27388863e-02, 3.06212413e-03, 9.71603859e-03, 7.92257395e-03,
       -7.23157357e-03, -5.06928377e-03, 1.60975417e-03, -1.96164623e-02,
       2.33049113e-02, -1.63551420e-02, 1.22451002e-03, 8.13145377e-03,
       -3.12917540e-03, -4.77561587e-03, -5.74760744e-03,
       -3.32715455e-03, -1.92131158e-02, -5.73548162e-03,
       -1.62166283e-02, -6.49018120e-03, 3.37573537e-03, -9.64368694e-04,
       2.85457494e-03, 2.72134272e-03, 3.59991915e-03, 7.59960385e-03,
       1.12386560e-02, -1.68657843e-02, -1.18918228e-03, 2.53136223e-03,
       6.14198216e-04, 1.09886774e-03, -1.42291642e-03, -5.66446362e-03,
       -2.59671528e-02, 8.56011640e-03, 1.43306490e-04, 2.15705577e-03,
       8.01174995e-03, 5.42279892e-03, 7.07355374e-03, -1.69870351e-03,
       5.55740390e-03, -5.64140175e-03, 3.36343683e-02, -9.75608267e-03,
       9.06015430e-06, 3.59280221e-03, 1.02534527e-02, -9.56476014e-03,
       -5.48601476e-03, -9.80034564e-03, -4.67545958e-03,
       -2.12881789e-02, -1.53278876e-02, -9.44617856e-03,
       -1.05631072e-02, -1.37062473e-02, 5.52512519e-03, 8.80243909e-03,
       4.93916916e-03, 2.49507092e-02, 1.97935347e-02, 1.44314757e-02,
       3.25380999e-04, 2.78772460e-03, -1.20810524e-03, -3.07683810e-03,
       -8.93908273e-03, -1.27326371e-02, -1.67383105e-02,
       -1.32789724e-02, -1.47682307e-02, -1.29304808e-02,
       -1.15482099e-02, -6.76771579e-03, 1.14203850e-02, -1.69374002e-03,
       1.26359134e-03, 2.68442240e-02, 2.27282401e-02, 2.55826451e-02,
       -8.64635408e-03, -5.56877209e-03, 1.96338329e-03, -1.36957159e-02,
       -1.12167252e-02, -7.17524206e-03, -9.31096263e-03,
       -1.94772445e-02, -1.83564965e-02, -1.56245278e-02,
       -7.31370505e-03, -1.65629499e-02, -1.18958643e-02,
       -7.05494126e-03, 2.17983443e-02, 5.74546494e-02, -8.10132455e-03,
       -1.45701843e-03, 1.62753817e-02, 1.44353462e-03, -8.27660784e-03,
       -5.07753948e-03, -1.52292866e-02, -1.56130465e-02,
       -1.67685503e-04, -1.77173000e-02, -1.91487912e-02,
       -2.73380168e-02, -1.70286354e-02, -1.17880255e-02, 1.41327456e-03,
       3.14085116e-03, 2.88303457e-02, 5.64428754e-02, 1.15601346e-02,
       3.68100638e-03, 9.66213364e-03, -1.28619757e-03, -1.71551073e-03,
       -1.77203417e-02, -8.51721317e-03, 5.78080164e-03, 3.56243700e-02,
       -2.77398024e-02, 1.12631209e-02, 6.46290573e-05, -1.18656959e-02,
       -2.01251190e-02, -2.21107025e-02, -1.06284590e-02,
       -4.39184532e-03, 1.74283087e-02, -5.93475113e-03, 3.24380100e-02,
       5.39400382e-03, -1.52154481e-02, -2.72766296e-02, -9.25659575e-03,
       -8.66706856e-03, 3.69947799e-03, 2.68277116e-02, -2.48738527e-02,
       3.54708941e-03, -6.64529949e-03, -1.19393663e-02, -9.11587197e-03,
       -7.21333222e-03, -5.93127124e-03, -1.06510404e-03, 2.01771352e-02,
       -1.72224548e-02, 2.95491982e-02, -2.15437962e-03, -1.40917106e-02,
       -1.21257436e-02, 7.75678596e-03, 1.80607792e-02, 6.75360858e-03,
       2.40035821e-02, 5.48554119e-03, 4.61528525e-02, 7.55745731e-03,
       3.10041034e-03, -2.18314771e-03, -1.44615665e-03, 6.72087818e-03,
       -1.55115582e-03, -9.94668622e-03, -5.93798161e-02,
       -1.98573302e-02, -9.08736233e-03, -7.37152481e-03,
       -8.45132768e-03, 6.76748203e-03, 7.62140891e-03, 8.23024753e-03,
       3.63941416e-02, 5.27708465e-03, 4.26256098e-02, -2.89721973e-03,
       -2.96870153e-03, 5.08690486e-04, 8.47402087e-04, -7.60513032e-03,
       -1.29363909e-02, -1.49527611e-02, -5.89645244e-02,
       -2.05911081e-02, -1.47148594e-02, -1.79714859e-02,
       -4.55408357e-03, 1.11441659e-02, 1.98206119e-02, 2.89404672e-02,
       4.10518283e-03, 9.55345668e-03, 3.88157903e-03, 4.86368127e-03,
       -2.52338732e-03, 3.72195453e-03, -1.42032364e-02, -5.10568451e-03,
       4.38614981e-03, -2.31897254e-02, 2.51456862e-03, -1.54689951e-02,
       -8.09400156e-03, -9.41599347e-03, -1.15225967e-02, 1.97087135e-02,
       1.09158866e-02, 2.06763223e-02, -7.43376464e-03, -2.93841911e-03,
       6.71334658e-03, 3.80526762e-03, -7.70508358e-03, 1.18887201e-02,
       -2.28528259e-03, -7.50289857e-03, 9.16573242e-07, -3.62003446e-02,
       7.62090273e-03, -1.40727824e-02, -6.44946750e-03, -1.58495046e-02,
       -5.34515176e-03, -1.11385873e-02, -8.65163933e-03,
       -6.85772439e-03, -1.58761088e-02, 2.15467289e-02, 4.49550943e-03,
       9.54181049e-03, 8.19157716e-03, -2.58411560e-03, -1.40109621e-02,
       -1.49023337e-02, -1.50067089e-02, -2.44252235e-02, 3.11501585e-02,
       -7.27389066e-04, 1.15021989e-02, 8.37500207e-03, -5.51121263e-03,
       1.88294298e-03, -9.27220844e-03, -1.79623608e-02, -1.93565190e-02,
       2.99186073e-02, 2.77664303e-03, 1.07578165e-03, 1.08542258e-03,
       7.47998711e-03, 5.50512131e-03, -1.04503771e-02, -2.31708903e-02,
       -2.79049352e-02, 2.34575234e-02, 2.75465318e-05, 9.22193378e-03,
       5.77391637e-03, 1.55194709e-02, -9.00420547e-01 ]
