%YAML:1.0
---
detector: !!opencv-object-detector-hog
   winSize: [ 64, 64 ]
   blockSize: [ 16, 16 ]
   blockStride: [ 8, 8 ]
   cellSize: [ 8, 8 ]
   nbins: 9
   derivAperture: 1
   winSigma: 4.
   histogramNormType: 0
   L2HysThreshold: 2.0000000000000001e-01
   gammaCorrection: 1
   nlevels: 64
   signedGradient: 0
   SVMDetector: [ -3.46994624e-02, -1.45994369e-02, -2.15920899e-02,
       -4.01237002e-03, 2.95294300e-02, -7.64322188e-03, -8.57915264e-03,
       1.18468879e-02, -1.50307780e-02, -2.95910854e-02, -8.68505053e-03,
       -1.76666174e-02, 1.32942516e-02, 3.28118615e-02, 1.74176344e-03,
       9.74907074e-03, 1.59406811e-02, -1.72416214e-02, -1.30332876e-02,
       1.72757879e-02, -1.02172075e-02, -6.26579626e-03, -4.94379923e-03,
       -2.08030827e-02, -1.55952824e-02, 5.05688228e-03, -1.33105097e-02,
       -1.77186485e-02, 6.47191238e-03, 1.31189134e-02, 2.12511495e-02,
       1.55008966e-02, -1.57151129e-02, -3.58256814e-03, 9.21169389e-03,
       5.39914658e-03, -5.11615127e-02, -2.25057472e-02, -2.20706686e-02,
       -1.48427244e-02, -3.11578177e-02, -1.25707537e-02,
       -1.40964920e-02, -2.43916176e-02, -5.13329208e-02, 1.57517809e-02,
       2.42199395e-02, -9.38383688e-04, 2.66541187e-02, 3.14543210e-02,
       6.38944879e-02, 4.36233580e-02, 3.41515094e-02, 1.62374750e-02,
       -4.16913182e-02, -3.29830311e-02, -1.70723014e-02,
       -1.09095229e-02, -2.48332769e-02, -3.31010073e-02,
       -3.91715653e-02, -2.99195684e-02, -2.16560476e-02,
       -1.23562720e-02, 8.02991446e-03, -1.53072104e-02, -3.13132699e-03,
       2.07562279e-02, 2.07116585e-02, 4.88381134e-03, 6.32828893e-03,
       -1.01927444e-02, -3.34686935e-02, -2.38921400e-02,
       -5.01640551e-02, -5.03643192e-02, -3.17163877e-02, 1.57737974e-02,
       -7.53611326e-03, 7.66807841e-03, -2.59043779e-02, 2.11761966e-02,
       2.50488259e-02, 1.55942012e-02, 3.86053286e-02, 5.24534434e-02,
       4.00852747e-02, 7.87194893e-02, 5.99708706e-02, 4.47699837e-02,
       -3.61835025e-02, -3.79713140e-02, -6.02794215e-02,
       -6.03672154e-02, -6.45763129e-02, -2.37511415e-02,
       -3.39016244e-02, -2.50016712e-02, -4.37904894e-02, 1.94646195e-02,
       1.04459673e-02, 2.41484726e-03, -1.77155491e-02, -1.80808995e-02,
       1.15455883e-02, 4.25622240e-02, 2.97185928e-02, 1.47686638e-02,
       -1.12110411e-03, -7.74538470e-03, -2.91234236e-02,
       -2.82479003e-02, 4.21185698e-03, 4.44323905e-02, 4.90440726e-02,
       5.40536344e-02, 1.52502730e-02, -9.91710089e-03, -2.03070994e-02,
       -3.17654572e-02, 1.15384546e-03, -6.92560673e-02, 5.73970424e-03,
       4.17207219e-02, 4.53937128e-02, -4.83143609e-04, -3.74697614e-03,
       -3.86493350e-03, -2.70978920e-02, -4.18810323e-02,
       -3.40681113e-02, 3.89109068e-02, 3.26556042e-02, 1.32263517e-02,
       -6.16692984e-03, -8.29258934e-03, -2.79741287e-02,
       -1.86221208e-02, -6.56209607e-03, -3.64050120e-02,
       -1.10215284e-02, 2.36224383e-03, -1.04542375e-02, -2.35995911e-02,
       1.72342137e-02, 2.15718918e-03, -9.85790603e-03, 1.41754402e-02,
       -2.66107582e-02, 4.86541837e-02, 6.60060421e-02, 6.17914684e-02,
       1.79165807e-02, -5.20534767e-03, -1.42112197e-02, -3.83104868e-02,
       -3.32079791e-02, -6.45070150e-02, -5.07201143e-02,
       -9.21766274e-03, -3.08070565e-03, -1.18816877e-02, 3.90963890e-02,
       1.04311118e-02, 9.53204406e-04, 2.34739333e-02, 1.90629177e-02,
       3.71072218e-02, 6.53277040e-02, 3.09717972e-02, 2.98484005e-02,
       -6.91174297e-03, -1.00615658e-02, -3.89377810e-02,
       -3.81823219e-02, -2.43413746e-02, -3.78151052e-02,
       -1.60074644e-02, -8.44973885e-03, -1.49906185e-02, 2.92319264e-02,
       1.82713345e-02, 6.81991782e-03, 2.82537211e-02, -2.90354751e-02,
       1.12217246e-02, 1.14968689e-02, 8.22326727e-03, 1.84167158e-02,
       -1.53213190e-02, -8.58842395e-03, -1.86710376e-02,
       -1.94020756e-02, -4.74096574e-02, -2.01311540e-02,
       -2.41620820e-02, -1.91987995e-02, -1.64686367e-02, 2.84391232e-02,
       3.31670567e-02, 1.31822685e-02, 3.25518064e-02, 1.39115872e-02,
       2.26151068e-02, 1.83417834e-02, 1.92205831e-02, 1.46993203e-02,
       -3.54198227e-03, -4.07943153e-04, -1.33282868e-02, 1.20253060e-02,
       8.43909197e-03, -7.40009779e-03, 1.25687197e-03, -6.50212634e-03,
       -5.29764872e-03, -5.85141033e-03, 5.36014885e-03, -2.27319193e-03,
       -1.79502890e-02, -1.45263877e-02, 1.57505146e-03, -1.02720154e-03,
       1.78272463e-02, 9.64144152e-03, -2.41752993e-03, 2.33142031e-03,
       1.11036748e-03, -1.81311835e-02, -2.10610945e-02, -4.14058678e-02,
       -3.88166797e-03, -1.46159148e-02, 1.90562606e-02, 1.84167642e-02,
       1.73565838e-02, 3.30223143e-03, 1.43359676e-02, 2.22051162e-02,
       3.51986885e-02, 2.14516148e-02, 1.77673958e-02, 1.98938120e-02,
       2.06400231e-02, 1.04109151e-02, 1.78510062e-02, 1.85084920e-02,
       2.08905302e-02, -1.60691924e-02, -2.61791050e-02, -1.39204571e-02,
       5.18502388e-03, -1.59350988e-02, 6.66424632e-03, -1.01719433e-02,
       -1.04154795e-02, 1.94456764e-02, -1.00857690e-02, 4.36963886e-03,
       1.71596743e-02, 4.08999156e-03, -5.49747329e-03, 1.65925622e-02,
       2.05801744e-02, 1.01593500e-02, 1.74974781e-02, -6.89175958e-03,
       2.13425569e-02, 2.47168560e-02, 2.68542394e-02, -4.42231856e-02,
       -8.03468004e-03, 4.44532093e-03, 1.78385861e-02, 5.09067159e-03,
       -2.44731512e-02, -6.22957619e-03, -4.11542458e-03,
       -4.57345098e-02, -8.77087843e-03, 2.80179512e-02, 2.31070835e-02,
       4.51196171e-02, 2.87920088e-02, -3.55339213e-03, 3.09517048e-02,
       -5.14439354e-03, -1.70385223e-02, -4.49855998e-02,
       -3.66832279e-02, -2.57664640e-02, -2.16889735e-02,
       -3.29420418e-02, -7.18973437e-03, -1.29586961e-02,
       -2.98176892e-03, -1.69217065e-02, -2.05433927e-02, 5.88560384e-03,
       -1.76475123e-02, -4.57176333e-03, 1.59767065e-02, 4.51663993e-02,
       2.47382484e-02, 2.81005446e-02, -1.17523866e-02, -5.31904697e-02,
       -2.29368601e-02, -1.56852007e-02, 3.80222942e-03, -3.07783037e-02,
       -1.62726585e-02, -9.64986905e-03, -1.90602541e-02,
       -5.97724356e-02, 2.21014488e-02, 3.79252099e-02, 3.33298594e-02,
       6.39587045e-02, 2.00681929e-02, 5.99334687e-02, 3.72431464e-02,
       6.03476912e-02, 2.40089409e-02, -4.94051650e-02, -4.00907695e-02,
       -6.99938834e-02, -6.44843578e-02, -4.82544117e-02,
       -7.74494791e-03, -3.19294855e-02, -2.50530783e-02,
       -4.49265614e-02, -1.03301285e-02, 2.78094923e-03, -4.40263277e-04,
       -4.26282594e-03, -2.92687491e-02, 4.00366485e-02, 3.34426016e-02,
       1.52459359e-02, 4.96828649e-03, -3.60818990e-02, -1.31266182e-02,
       -3.79575416e-02, -2.79859435e-02, -2.59503126e-02,
       -2.00005015e-03, -1.97238717e-02, -1.33548547e-02,
       -4.15740125e-02, 2.39328798e-02, 5.74104078e-02, 7.11247176e-02,
       3.88013944e-02, 3.91131006e-02, 7.11649880e-02, 6.90493658e-02,
       5.48500642e-02, 3.03874910e-02, -1.85976066e-02, -1.18081933e-02,
       -2.30924729e-02, -4.96772118e-02, -4.82761748e-02, 4.13119271e-02,
       -7.03619840e-03, -1.67550612e-02, -1.70960966e-02,
       -1.65541340e-02, -2.85203457e-02, -1.98828168e-02, 4.41902876e-03,
       -6.57231128e-03, 5.96317928e-03, -3.77875927e-04, -3.02150175e-02,
       -3.04255169e-02, -8.08158237e-03, 3.99172166e-03, 2.45483406e-02,
       -2.79193819e-02, -3.18330303e-02, 4.65638526e-02, 2.45132167e-02,
       -1.07337546e-03, -1.87638507e-03, -3.82492109e-03,
       -4.71710879e-03, 2.79636476e-02, 4.97950423e-05, -8.72605422e-04,
       3.85074466e-02, 4.40133139e-02, -9.70037468e-03, 6.32802211e-03,
       8.91356170e-03, -1.47341667e-02, -1.32342475e-02, 2.51026656e-02,
       -1.09838480e-02, -1.84560276e-03, 6.51852321e-03, -2.15343549e-03,
       -3.12232878e-03, -3.37682925e-02, -3.90208662e-02,
       -4.97593582e-02, -4.48883772e-02, -5.12619391e-02,
       -6.25981838e-02, -5.46708517e-02, -2.87484508e-02,
       -4.27452289e-02, 4.33134437e-02, 2.96414103e-02, 5.92443086e-02,
       5.45963794e-02, 3.47923711e-02, 4.81847338e-02, 8.85384828e-02,
       5.67515641e-02, 6.07882589e-02, -1.22555830e-02, -1.69659127e-02,
       -1.99029241e-02, -3.76273431e-02, -3.47532779e-02,
       -5.24413995e-02, -3.30706537e-02, -4.21734992e-03,
       -8.55682138e-03, -2.31786282e-03, -3.60216782e-03,
       -6.07634522e-03, 3.15904641e-03, -2.20334660e-02, -6.06916053e-03,
       -1.23841558e-02, 1.49281509e-02, -7.25800346e-05, -2.03010906e-02,
       -2.32675765e-02, -3.17271724e-02, -1.43957082e-02,
       -2.42641065e-02, -3.23238783e-02, -2.65485123e-02,
       -2.16550697e-02, -1.82513241e-02, 3.56586799e-02, 1.20405080e-02,
       3.16219255e-02, 3.01602483e-02, 2.63715591e-02, 3.22049744e-02,
       2.13401746e-02, 6.63139969e-02, 4.95181084e-02, -2.86932383e-02,
       -2.75823344e-02, -3.71227525e-02, -3.56185324e-02,
       -2.79838741e-02, -7.58244656e-03, -3.60377282e-02,
       -1.36173265e-02, -1.70500968e-02, 8.42125248e-03, -4.61760908e-03,
       -7.74256373e-03, 1.68844890e-02, 2.34712921e-02, 3.00684962e-02,
       1.77199896e-02, 1.48684334e-03, 3.68364481e-03, -7.83167034e-03,
       -1.00403782e-02, -2.67952005e-03, 2.86735944e-03, -4.87803482e-03,
       -6.56854035e-03, -8.46741069e-03, -3.17434035e-02,
       -3.17778587e-02, -2.07000948e-03, 1.05227460e-03, 9.06055700e-03,
       1.36411693e-02, -4.30548890e-03, 3.98345180e-02, 1.42071834e-02,
       7.04308460e-03, 6.95457449e-03, -1.27214752e-02, -1.82571746e-02,
       -8.61766655e-03, -2.20682956e-02, -2.50702146e-02,
       -1.23877367e-02, 7.28030270e-03, 5.28768916e-03, -4.04165173e-03,
       -3.33207846e-02, -6.24096813e-03, -9.09951422e-03, 2.48406101e-02,
       4.60569095e-03, -1.42804561e-02, -3.43782268e-03, -7.05751777e-03,
       -3.75904925e-02, -1.44288419e-02, 2.34466586e-02, 9.82589275e-03,
       4.10832129e-02, 1.62917450e-02, 3.77738150e-04, 1.83786415e-02,
       -1.23276999e-02, -2.96168998e-02, -3.82509008e-02,
       -2.58019287e-02, -2.29961164e-02, 2.41141059e-02, -7.44519616e-03,
       -1.47850215e-02, -1.69740291e-03, 6.40904065e-03, -3.20608988e-02,
       -6.38963701e-03, 1.79627538e-02, 1.63953025e-02, 6.26255497e-02,
       4.17439938e-02, 1.52657218e-02, 1.90915484e-02, 1.78914834e-02,
       -1.95819046e-02, -4.81386147e-02, -2.22803894e-02,
       -2.87309736e-02, -1.76100321e-02, -7.28322640e-02,
       -3.97765264e-02, -2.42673773e-02, -2.10407767e-02,
       -5.29888421e-02, 1.02534741e-02, -1.45677046e-03, 7.00660143e-03,
       4.77544591e-02, 1.24916034e-02, 2.95365341e-02, 8.85003060e-03,
       3.20774540e-02, 8.84576421e-03, -5.47401942e-02, -1.53683461e-02,
       -1.82901584e-02, -1.20476969e-02, -4.71245386e-02,
       -3.52021530e-02, -3.78527455e-02, -2.55123880e-02,
       -6.35391921e-02, 1.24027068e-02, 3.92643064e-02, 5.79481870e-02,
       8.82416889e-02, 5.41982390e-02, 6.64330944e-02, 1.92020480e-02,
       4.57454249e-02, 2.78366394e-02, -3.70934680e-02, -1.36207044e-02,
       -1.66773424e-02, -1.82077717e-02, -3.78072038e-02,
       -2.85511967e-02, -2.79661901e-02, -1.30216805e-02,
       -3.84237096e-02, 1.94762703e-02, 4.21026759e-02, 6.19808622e-02,
       2.05130372e-02, -2.82754619e-02, -6.18320517e-03, 1.85235646e-02,
       2.90901102e-02, 1.45923579e-02, -2.66561788e-02, 6.42789854e-03,
       6.58485666e-03, 1.82405189e-02, 1.09614404e-02, -1.87957417e-02,
       -1.71515476e-02, -4.97192983e-03, -1.88209377e-02, 4.90910485e-02,
       7.06063807e-02, 7.62939006e-02, 4.19922881e-02, -1.39200268e-02,
       5.82427811e-03, 4.80918325e-02, 6.42991886e-02, 5.63021973e-02,
       -1.17782236e-03, 5.81608759e-03, 2.75067240e-02, -2.62086894e-02,
       -4.91092429e-02, 4.79043974e-03, 8.48449487e-03, 9.07380600e-03,
       4.96592699e-03, 6.81400707e-04, -4.79953876e-03, 2.52364241e-02,
       -4.21403022e-03, -1.10883405e-02, 3.00454069e-02, 4.24923152e-02,
       5.58333797e-03, 1.65011007e-02, 2.44227033e-02, 2.63000522e-02,
       4.10694778e-02, 1.39701751e-03, -6.87899441e-02, -1.98119320e-02,
       2.66894512e-02, 3.58861946e-02, 2.49212068e-02, 2.23941430e-02,
       4.59223688e-02, 6.08022474e-02, 8.56604800e-03, -4.29385975e-02,
       2.96492619e-03, 5.90548217e-02, 4.47157845e-02, 3.00761368e-02,
       9.65804793e-03, -2.06846907e-03, 2.48468053e-02, -4.20752680e-03,
       -1.77208204e-02, 2.14297436e-02, 6.59382716e-02, 4.22810204e-02,
       3.33159417e-02, -2.38431040e-02, -3.62395942e-02, -3.21383812e-02,
       -6.58487901e-02, -7.28914961e-02, -4.92534153e-02,
       -2.58122310e-02, -6.18333835e-03, -1.35880532e-02, 3.37587968e-02,
       3.61473635e-02, 8.09184983e-02, 5.07430844e-02, 2.55157389e-02,
       6.04706965e-02, 1.32737547e-01, 9.97691527e-02, 6.02498502e-02,
       -2.84072384e-02, -3.76025699e-02, -1.58932321e-02,
       -5.69180474e-02, -4.96731661e-02, -2.85537560e-02, 1.05900075e-02,
       -5.62343514e-03, -2.34674644e-02, 2.48228684e-02, 8.64327978e-03,
       3.16699408e-02, 1.16822599e-02, 1.86335631e-02, 3.39531489e-02,
       1.69240944e-02, 3.52533460e-02, 2.95235068e-02, -2.84671038e-02,
       -2.56696064e-02, -3.81654687e-02, -3.81968990e-02,
       -2.66779345e-02, -8.41864944e-03, -5.19879311e-02,
       -3.74667123e-02, -2.74586864e-02, 3.09552569e-02, 1.98436584e-02,
       4.66342010e-02, 2.88607571e-02, 1.52379544e-02, 4.43293266e-02,
       6.81342632e-02, 2.59901155e-02, 2.60802228e-02, -2.58043427e-02,
       -2.89812516e-02, -5.39985783e-02, -5.85762188e-02,
       -4.19353358e-02, -1.47619639e-02, -4.24600765e-02,
       -5.17995693e-02, -3.98348458e-02, -9.55039356e-03, 1.49398134e-03,
       1.72770675e-02, 1.87199581e-02, 2.09145099e-02, 4.05323468e-02,
       5.80805028e-03, 2.45890277e-03, 1.07937325e-02, -2.00544801e-02,
       -3.44939157e-02, -2.74396632e-02, -3.23746866e-03, 7.24210171e-03,
       -1.03275636e-02, 1.31938048e-03, -1.46419741e-03, 2.33084103e-03,
       3.87575128e-03, 1.08818021e-02, 1.00153275e-02, 1.44710792e-02,
       3.15829441e-02, 3.77259925e-02, 4.31261351e-03, -7.89952371e-03,
       -1.16528710e-04, -1.72982123e-02, -1.96937211e-02,
       -3.55872586e-02, -1.36269704e-02, -6.69143628e-03,
       -3.55430995e-03, -1.36145670e-03, -1.10504199e-02,
       -1.69251449e-02, -4.28547263e-02, -3.38898189e-02,
       -1.93957556e-02, 2.32134685e-02, -3.90324625e-03, 1.26292361e-02,
       -8.36424809e-03, -1.00828856e-02, -2.92586498e-02,
       -1.48453163e-02, -7.08257826e-03, 4.54065762e-03, 3.59997898e-02,
       2.68041342e-02, 2.19322201e-02, 1.37557033e-02, 3.18632042e-03,
       -1.45021342e-02, -3.10487673e-02, -8.32465384e-03,
       -1.16452230e-02, 1.01730451e-02, -1.85396168e-02, 2.32491270e-02,
       -2.11589839e-02, -3.57143320e-02, -4.79143523e-02,
       -9.82682500e-03, 6.56536967e-03, 1.23984748e-02, 2.54012700e-02,
       2.82673258e-02, 4.04556319e-02, 7.88987521e-03, -4.13461775e-03,
       -1.44420844e-02, -5.50278313e-02, -4.12689783e-02,
       -3.12372632e-02, -3.54001857e-02, -5.43692224e-02,
       -3.91784497e-02, -3.55718248e-02, -4.07477543e-02,
       -5.83698153e-02, 9.44399461e-03, -3.70747549e-03, 5.98457363e-03,
       6.27486557e-02, 5.76728545e-02, 5.56814484e-02, 1.20416936e-02,
       1.10808760e-02, 1.65030304e-02, -6.06491417e-02, -4.52171527e-02,
       -4.47580181e-02, -4.36295010e-02, -6.14684932e-02,
       -3.82176153e-02, -3.34697925e-02, -4.26330566e-02,
       -5.80574982e-02, 1.71393529e-02, 1.21488329e-02, 7.60723324e-03,
       4.54753041e-02, 3.30783352e-02, 5.99402077e-02, 7.53630511e-03,
       -3.03211249e-03, 1.07069584e-02, 1.39277463e-03, -1.28678540e-02,
       -1.94528215e-02, -2.38205330e-03, 3.05076092e-02, -8.12614989e-03,
       -1.09053347e-02, -1.42765623e-02, 3.98883270e-03, 3.92874181e-02,
       -3.87809658e-03, 4.05380875e-03, 1.09043894e-02, -5.73810982e-03,
       5.91475703e-03, 1.54228266e-02, 1.69984978e-02, 3.75605524e-02,
       -1.88901124e-03, -1.58966780e-02, -1.69551205e-02,
       -2.05550808e-02, 1.57641266e-02, -2.57699355e-03, -1.94974970e-02,
       -1.24998549e-02, -3.96564882e-03, 4.40397374e-02, 2.32819617e-02,
       1.92731861e-02, -5.24493959e-03, -1.78473443e-02, 7.54403602e-03,
       1.45112034e-02, 2.06408603e-03, 3.77545021e-02, 2.62598619e-02,
       1.23574249e-02, 7.94877950e-03, -1.57292299e-02, -4.90493327e-02,
       -2.88389698e-02, 2.10154820e-02, 2.60892771e-02, 2.82590576e-02,
       1.53125636e-02, 4.82158400e-02, 6.05018660e-02, 1.89219117e-02,
       -4.14796919e-02, -4.75676451e-03, 5.42487986e-02, 3.84006612e-02,
       1.48865199e-02, 3.10746562e-02, 3.29331383e-02, 2.26518940e-02,
       -3.85179631e-02, -5.98334149e-02, -1.72809940e-02, 1.22891571e-02,
       1.49735324e-02, 2.42409520e-02, 1.50287552e-02, 4.34872247e-02,
       5.26227169e-02, -1.58403851e-02, -4.79056612e-02, 1.01505164e-02,
       5.90935126e-02, 5.06887473e-02, 1.37378741e-02, -3.84550862e-04,
       3.12349889e-02, 8.87866393e-02, 5.54995425e-02, 8.22278485e-03,
       6.20941520e-02, 1.01254143e-01, 4.01971042e-02, 3.29846237e-03,
       -5.61202243e-02, -4.63034287e-02, -3.25824716e-03,
       -2.71520242e-02, -2.29454208e-02, -1.03828432e-02, 6.54047774e-03,
       -3.39963473e-02, -5.56674898e-02, 5.52262086e-03, 4.66168821e-02,
       1.06432877e-01, 4.44077887e-02, 1.19751389e-03, 5.37633598e-02,
       9.18785036e-02, 3.58362198e-02, 1.68162325e-04, -6.00094572e-02,
       -3.57803293e-02, 3.25546414e-03, -2.93683149e-02, -3.03764958e-02,
       -4.06372510e-02, -7.04057515e-03, -4.93260622e-02,
       -6.04232438e-02, 9.42912605e-03, 1.20370667e-02, 5.27686737e-02,
       5.22683412e-02, 3.28999236e-02, 6.43117502e-02, 6.31951615e-02,
       5.70643228e-03, 2.97925901e-03, -3.01851649e-02, -3.28766182e-02,
       -3.62921357e-02, -4.42046076e-02, -2.11343206e-02,
       -2.27172691e-02, -2.16752943e-02, -3.20390575e-02,
       -3.35262828e-02, 5.06168744e-03, 5.39247086e-03, 6.74462318e-02,
       5.15091084e-02, 1.09755890e-02, 4.03611138e-02, 5.25061190e-02,
       1.70501508e-02, 1.27866054e-02, -3.85725275e-02, -3.63368466e-02,
       -2.33533140e-02, -2.55768057e-02, -3.75862159e-02,
       -5.06398007e-02, -4.25699390e-02, -3.32805999e-02,
       -3.30392234e-02, -5.78104798e-03, -1.52464043e-02,
       -9.54942405e-03, 1.18433125e-02, 5.53537607e-02, 2.28071027e-02,
       -1.91672982e-04, -1.29163433e-02, -1.51605336e-02,
       -2.29345337e-02, -1.99077986e-02, -2.90788487e-02, 1.81036780e-03,
       1.37692085e-02, 1.11217063e-03, -2.16228273e-02, -2.07848866e-02,
       -2.82404348e-02, -1.30867194e-02, -1.28130699e-02, 7.27178471e-04,
       2.37618256e-02, 3.73342931e-02, 1.42807672e-02, -7.33340951e-03,
       -1.19813355e-02, -3.23656085e-03, -2.87038181e-02,
       -1.98676120e-02, -2.50937920e-02, 7.24870712e-04, 4.99878265e-03,
       -2.11045332e-03, -2.90578865e-02, -2.00061966e-02,
       -2.44566351e-02, -3.30828577e-02, 5.96927479e-03, -2.13241857e-03,
       -1.36917094e-02, 5.25382767e-03, 2.11762059e-02, -2.15141270e-02,
       -2.38843746e-02, -3.83441113e-02, -2.12470144e-02, 1.79789383e-02,
       1.98832247e-02, 1.87067464e-02, 4.97992299e-02, 5.86083792e-02,
       1.61579773e-02, 2.07152516e-02, -1.00455610e-02, -3.76711525e-02,
       -8.72856099e-03, -9.92391072e-03, -1.63345840e-02,
       -1.28918700e-02, 2.63522677e-02, -6.90664118e-03, -5.78985037e-03,
       -3.28367911e-02, -2.69812271e-02, -9.76909511e-03, 1.85146704e-02,
       1.45117880e-03, 1.61718391e-02, 4.69708703e-02, 1.45838046e-02,
       2.93795150e-02, -1.36404335e-02, -5.64287566e-02, -1.84484962e-02,
       -3.30450013e-02, -3.09455562e-02, -4.05633114e-02,
       -5.94551675e-03, -1.11835329e-02, -7.41347484e-03,
       -5.19981571e-02, 2.48629171e-02, 4.88798097e-02, 2.33732089e-02,
       7.30287433e-02, 6.95611611e-02, 9.94502604e-02, 6.19135424e-02,
       4.26406898e-02, 1.24821868e-02, -5.80920652e-02, -2.25292146e-02,
       -3.05116456e-02, -4.37234119e-02, -7.71104172e-02,
       -1.59646440e-02, -2.90446989e-02, -2.24216022e-02,
       -5.34653440e-02, 1.40497079e-02, 3.88203040e-02, 1.50300153e-02,
       2.72628795e-02, -7.51900487e-03, 4.63763401e-02, 5.42803528e-03,
       -9.95474402e-04, 1.39763365e-02, -1.69475283e-02, -1.59558747e-03,
       -1.27342707e-02, -8.88397731e-03, 2.25982033e-02, 2.64969654e-02,
       9.87300836e-03, 7.54472567e-03, -2.32165344e-02, 5.53716011e-02,
       6.09903559e-02, 4.81974445e-02, 1.66342203e-02, -5.40355965e-03,
       5.77819459e-02, 7.76585117e-02, 6.63864613e-02, 4.90374379e-02,
       -4.22904193e-02, -1.59413815e-02, -3.02230641e-02,
       -3.21550220e-02, -5.06314375e-02, -2.17084102e-02,
       -2.03864053e-02, -1.62320510e-02, -4.09323014e-02, 1.67163145e-02,
       3.33516113e-02, 1.90934669e-02, -1.24587519e-02, -2.25317683e-02,
       1.64720640e-02, 6.68003559e-02, 4.57782410e-02, 2.30216496e-02,
       2.40017939e-02, 3.43778618e-02, 2.60980092e-02, -5.20759774e-03,
       -5.47998436e-02, 7.61512015e-03, 3.82653549e-02, 2.54560467e-02,
       2.40538809e-02, 2.59805452e-02, 4.25211154e-02, 6.34512529e-02,
       2.25657132e-02, -3.64668928e-02, 1.06409257e-02, 6.45285025e-02,
       4.42066640e-02, 2.26705819e-02, 8.66255164e-03, 9.50189214e-03,
       4.78238100e-03, -4.80368151e-04, -5.07958159e-02, -3.48719209e-02,
       3.23301479e-02, 6.79002423e-03, -3.54678690e-04, 1.57103501e-02,
       3.41589609e-03, 4.05795090e-02, 2.03267746e-02, -1.78705603e-02,
       -1.47794234e-02, 2.51029823e-02, -7.11362483e-03, -4.58490103e-04,
       5.87956868e-02, 9.54760313e-02, 1.35467485e-01, 7.87688866e-02,
       3.24892439e-02, 4.64251600e-02, 7.96938613e-02, 3.31621431e-02,
       3.55474725e-02, -1.47082852e-02, -8.86488706e-04, 1.34702371e-02,
       -1.29291387e-02, -4.19183634e-02, -4.42299061e-02,
       -1.10437125e-02, -3.00664250e-02, -2.02415101e-02, 3.73562947e-02,
       4.63707447e-02, 6.22963943e-02, 4.82201343e-03, -1.84027608e-02,
       -2.90291035e-03, 3.04550584e-02, 5.77450206e-04, 1.26016978e-02,
       -1.41759077e-02, -6.79861335e-03, -3.42179053e-02,
       -6.57406449e-02, -7.48532712e-02, -7.16372207e-02,
       -3.94405127e-02, -3.98963466e-02, -2.77182274e-02, 2.52978839e-02,
       2.48438437e-02, 6.30948767e-02, 5.29228635e-02, 3.07063311e-02,
       3.44916284e-02, 4.21661139e-02, 1.93093829e-02, 2.94105485e-02,
       -3.86712924e-02, -4.60085534e-02, -3.72032486e-02,
       -1.55865932e-02, -2.68992968e-02, -5.16694747e-02,
       -4.63235006e-02, -2.62619760e-02, -2.54256427e-02, 3.30463760e-02,
       3.99453975e-02, 1.37938131e-02, 2.59252004e-02, 1.06196012e-02,
       6.44033263e-03, 2.66969521e-02, 8.06214288e-03, 2.76855286e-02,
       -3.32076885e-02, -4.22967933e-02, -6.06207214e-02,
       -1.15694515e-02, -3.70762907e-02, -4.19895276e-02,
       -4.60042357e-02, -3.43725234e-02, -3.52343023e-02,
       -2.84103537e-03, -4.97630099e-03, 6.44643931e-03, 3.56342010e-02,
       3.75719704e-02, 1.49983307e-02, 1.23324292e-02, 8.51907860e-03,
       -1.38846005e-03, -2.18600482e-02, -7.79105676e-03, 3.56101757e-03,
       -1.52054033e-03, -3.15265660e-03, -1.39440307e-02,
       -3.33426967e-02, -1.98742952e-02, -2.43202522e-02, 9.25939251e-03,
       3.23160412e-03, 8.43430869e-03, 4.43819426e-02, 7.96943810e-03,
       2.25696731e-02, 2.00915951e-02, 3.36412690e-04, -1.06742447e-02,
       -4.01733821e-04, 2.27985159e-03, 5.09560388e-03, -5.28733246e-03,
       3.03777121e-03, -5.66147314e-03, -2.15543620e-02, -3.16222236e-02,
       -2.15090588e-02, -4.48119976e-02, -7.59291183e-03,
       -9.98121034e-03, -2.07045861e-02, 1.81036554e-02, 1.35222226e-02,
       2.32529244e-03, -1.10345986e-02, -4.50194962e-02, -1.49980746e-02,
       -2.63848994e-03, 2.42316518e-02, -4.02534101e-03, 2.51231659e-02,
       3.78336348e-02, 1.92540362e-02, 1.99845843e-02, -9.39426944e-03,
       3.67832975e-03, 1.86281167e-02, -2.54161314e-05, -1.44414259e-02,
       6.03420287e-03, -1.36575447e-02, -1.22974329e-02, 6.36316370e-03,
       -1.94330402e-02, 2.74035800e-02, 2.39996538e-02, 1.81425270e-02,
       -1.01376800e-02, 1.92341860e-02, 1.40823079e-02, 2.53817681e-02,
       2.06050668e-02, -3.73451156e-03, -5.49397506e-02, -1.34547064e-02,
       -7.42459344e-03, -1.03455968e-02, -2.12792009e-02, 7.69937504e-03,
       -8.23793747e-03, -1.93183571e-02, -4.83814143e-02, 2.17622593e-02,
       5.58879413e-02, 3.40304300e-02, 5.90001456e-02, 3.41271199e-02,
       6.38251677e-02, 3.16488482e-02, 3.79368253e-02, 2.19073799e-02,
       -2.04582289e-02, -5.12707420e-03, -1.67151727e-02,
       -8.59149639e-03, -2.96231546e-02, -2.06745043e-02,
       -2.55523007e-02, -3.43879946e-02, -4.64962125e-02,
       -9.92008392e-03, 3.02145537e-02, 2.73764580e-02, 4.20971401e-02,
       6.38139714e-03, -3.39934835e-03, -1.96985509e-02, 9.08388756e-03,
       -1.98557097e-02, -3.76925543e-02, -9.35641490e-03,
       -1.72271300e-02, -1.15477876e-03, -1.12931719e-02,
       -1.96785927e-02, -3.30741331e-02, -1.06859747e-02,
       -3.16298231e-02, 3.19359563e-02, 5.35255149e-02, 6.02396689e-02,
       8.55773687e-02, 4.80619371e-02, 4.99013364e-02, 7.25492463e-02,
       5.80083504e-02, 2.93491986e-02, -5.29747792e-02, -2.94548720e-02,
       -3.70305181e-02, -8.66813865e-03, -5.33502251e-02,
       -6.71451613e-02, -7.74356872e-02, -4.52131666e-02,
       -5.78398928e-02, 4.75266995e-03, 1.66404564e-02, 3.27078663e-02,
       3.12190540e-02, -4.04982492e-02, -4.22788132e-03, -4.56294569e-04,
       1.13289349e-03, -9.55527276e-03, -9.49657755e-04, -2.12372467e-03,
       2.29574647e-02, 6.05241396e-02, -1.56864673e-02, -9.24567226e-03,
       2.56026238e-02, 9.34808981e-03, -7.75965070e-03, 4.81724041e-03,
       -9.08538513e-03, 4.15717624e-02, 5.50557971e-02, 1.22730620e-02,
       1.86790470e-02, 3.71553451e-02, 8.94763973e-04, 2.56376038e-03,
       -1.95458736e-02, -1.66642498e-02, -7.58245680e-03, 3.64753231e-02,
       -5.72637580e-02, -5.35451658e-02, -2.77621727e-02,
       -1.46798389e-02, -2.15946883e-02, -3.42383459e-02,
       -3.11058424e-02, -3.72177386e-03, -7.39920605e-03,
       -1.93424709e-02, -5.19381743e-03, -2.22573206e-02,
       -3.23107988e-02, -1.93967000e-02, 5.86862527e-02, 5.71886934e-02,
       8.91110972e-02, 6.67390823e-02, 5.56896590e-02, 7.20306113e-02,
       5.83576746e-02, 2.92427819e-02, 4.50982116e-02, -6.41009957e-03,
       -2.33357120e-03, -2.33906638e-02, -3.67301591e-02,
       -3.40889655e-02, -2.42660530e-02, -1.30286766e-02,
       -9.78264399e-03, -6.43254304e-03, -7.74695945e-04, 2.64136586e-03,
       1.31890895e-02, -3.75052285e-03, -1.20620551e-02, 1.37995305e-02,
       -1.15959831e-02, -1.38833122e-02, 1.22529948e-02, -4.74788100e-02,
       -2.90910937e-02, -5.64232767e-02, -7.05366284e-02,
       -5.91498837e-02, -5.04283905e-02, -5.50776906e-02,
       -4.14905436e-02, -3.85639928e-02, 4.81072553e-02, 6.18431307e-02,
       2.26790980e-02, 3.92684974e-02, 3.40526327e-02, 3.42782028e-02,
       2.86405422e-02, 1.47139877e-02, 3.24880369e-02, -1.39239943e-02,
       -9.80379898e-03, -3.05825379e-02, -1.86543958e-03,
       -1.22002354e-02, -2.94944365e-02, -2.99451929e-02,
       -2.19879728e-02, -2.51582842e-02, -2.30069668e-03, 1.60379615e-02,
       -9.20220837e-03, -9.48458165e-03, -3.03214341e-02, 2.47302291e-04,
       -7.22624268e-03, -2.12986371e-03, -2.06158217e-03,
       -2.14192029e-02, -2.32083090e-02, -2.87402458e-02,
       -4.08902057e-02, -3.14435437e-02, -1.69402864e-02,
       -3.06502096e-02, -2.41419021e-02, -2.17220671e-02, 4.39744117e-03,
       5.54780103e-03, 1.28479954e-02, 3.88694257e-02, 2.72362423e-03,
       1.14069628e-02, 6.03501080e-03, 2.33668252e-03, -4.15012619e-04,
       -7.34909903e-03, 2.93150870e-03, 6.87512849e-03, -9.16488469e-03,
       -2.84165554e-02, -2.22147144e-02, -7.71034975e-03,
       -1.14792464e-02, -1.00658424e-02, 3.63628892e-03, -6.65045227e-05,
       1.70543715e-02, 3.16722915e-02, 2.19428781e-02, 1.92494728e-02,
       -9.29329637e-03, -5.54012600e-03, 1.04490062e-02, -3.13508026e-02,
       -3.25942747e-02, -9.37672053e-03, -8.13117065e-03,
       -1.75381510e-03, 2.71203439e-03, -3.96658480e-03, -1.01561658e-02,
       -7.78198009e-03, -1.96209680e-02, 3.84361297e-03, -1.36048226e-02,
       -1.36672910e-02, 9.14569292e-03, -5.70807466e-03, -7.83616584e-03,
       1.41473962e-02, -1.53276846e-02, -3.12348385e-03, 7.41835404e-03,
       -1.39889633e-03, -1.03419181e-02, 1.51685337e-02, 1.84958912e-02,
       1.14270132e-02, 4.47589112e-03, -1.48188798e-02, -6.41936949e-03,
       1.53012499e-02, -7.27658998e-03, -7.28641823e-03, 1.58034787e-02,
       -7.52031617e-03, -2.56462898e-02, -1.94497220e-02,
       -3.37209217e-02, -7.36808637e-03, 1.98640805e-02, 1.14096049e-02,
       1.32687064e-03, 2.76785810e-02, 1.17446184e-02, -2.18661018e-02,
       -1.01563223e-02, -2.28151735e-02, -2.65260469e-02,
       -2.76241172e-02, -3.33990045e-02, -3.13571393e-02,
       -2.24256534e-02, -9.63590760e-03, -1.50111197e-02,
       -2.91983020e-02, -3.71174030e-02, -8.69441032e-03, 1.63204619e-03,
       1.83746626e-03, 2.77161114e-02, 2.54171807e-02, -3.39264004e-03,
       -1.42755471e-02, 7.90946465e-03, -7.33614992e-03, -5.55543751e-02,
       -2.75268592e-02, -1.69555862e-02, -2.06168927e-02,
       -4.20458168e-02, -2.04068664e-02, -2.69821119e-02,
       -2.38455608e-02, -5.45048304e-02, 1.70446858e-02, 3.56590599e-02,
       4.33759131e-02, 5.73360957e-02, 2.26188526e-02, 2.95153540e-02,
       -1.61570206e-03, 2.56278105e-02, 1.82583220e-02, -3.99996415e-02,
       -2.42270343e-02, -3.54905166e-02, -2.34890357e-02,
       -5.40505201e-02, -5.15916944e-02, -5.21291122e-02,
       -3.35667506e-02, -3.33551392e-02, 1.49915498e-02, 2.97004767e-02,
       3.81355248e-02, 2.44888980e-02, -5.23110945e-03, -9.75447148e-03,
       2.55515962e-03, 1.17149251e-02, 1.74224842e-02, -2.86953319e-02,
       3.25509184e-03, -1.44980075e-02, 7.46232457e-03, -4.09436710e-02,
       -5.21355383e-02, -5.84607236e-02, -2.79196352e-02,
       -3.70848067e-02, 4.33843061e-02, 5.96762262e-02, 7.48912022e-02,
       3.32588814e-02, 3.79763022e-02, 3.43597904e-02, 1.15045412e-02,
       2.64326353e-02, 2.19102241e-02, -4.32666391e-03, 1.83961764e-02,
       3.65602300e-02, 4.97546606e-02, -2.00415216e-02, -3.98231894e-02,
       -2.51165163e-02, -4.22009034e-03, -2.09887000e-03,
       -2.21176464e-02, -7.22352369e-03, 4.98199789e-03, 1.20269647e-03,
       -2.10203640e-02, 8.10848922e-03, -1.79723073e-02, -2.27296986e-02,
       -5.88048389e-03, 2.18257345e-02, 5.75016178e-02, 5.34836538e-02,
       3.64983231e-02, -3.59818153e-03, -3.12835425e-02, -3.18414606e-02,
       -4.32278216e-03, 1.58838776e-03, -1.56747829e-03, 4.41622771e-02,
       3.79005298e-02, -3.84855550e-03, -8.65978748e-02, -1.62919797e-02,
       -3.67365442e-02, -2.15804446e-02, -1.23259285e-02, 2.67673098e-02,
       3.07936464e-02, 6.58149496e-02, 4.86492515e-02, 2.24662703e-02,
       3.33325900e-02, 4.25970182e-03, 1.35744102e-02, 3.51930708e-02,
       -1.20966481e-02, -8.36693868e-03, -1.15524288e-02,
       -3.11148260e-02, -2.36860048e-02, -3.09980027e-02,
       -3.06531042e-02, -6.52001146e-03, -3.88300861e-03, 2.29856670e-02,
       6.82837293e-02, 7.21959025e-02, 4.92844209e-02, -3.49787250e-02,
       1.14017157e-02, -9.43009742e-03, 5.55674965e-03, 2.17014477e-02,
       -1.25854826e-02, -8.35276954e-03, -1.65229645e-02,
       -5.68225868e-02, -6.35013506e-02, -3.87187526e-02,
       -4.28136177e-02, -1.61909014e-02, -1.48234505e-03, 1.44901806e-02,
       1.83016136e-02, 2.17869300e-02, 2.55060326e-02, 1.74589511e-02,
       3.81716527e-02, 1.28973117e-02, 3.09908763e-02, 2.89075468e-02,
       -5.94816229e-04, -4.57501505e-03, 1.83783378e-03, -2.17988901e-03,
       1.44874295e-02, 1.36658652e-02, -9.29704495e-03, 2.38979678e-03,
       2.65212008e-03, 1.98797546e-02, 9.85348038e-03, 1.03634158e-02,
       1.21925678e-02, -2.92884149e-02, 3.24608423e-02, 5.82890166e-03,
       1.82417631e-02, 3.12749557e-02, -1.52820768e-02, -1.94415711e-02,
       -2.69607063e-02, -1.59279462e-02, -4.90077101e-02,
       -1.51959993e-02, -1.65817514e-02, -1.10728564e-02,
       -1.76823325e-02, 1.84389781e-02, 1.75946411e-02, 1.81364771e-02,
       2.83584166e-02, 2.23525129e-02, 1.03023183e-02, 5.62582538e-03,
       2.00598687e-02, 1.74646098e-02, 5.81670832e-03, -1.12597523e-02,
       -2.14489866e-02, -1.95005182e-02, 1.24304127e-02, 1.66369192e-02,
       1.92944966e-02, 1.21501721e-02, 1.82813946e-02, 1.27090551e-02,
       1.80577785e-02, 1.12389470e-03, 3.39237507e-03, -1.98696218e-02,
       -1.74175743e-02, 3.47234099e-03, 8.69541615e-03, -3.27650364e-03,
       1.94731914e-02, -1.18167195e-02, 4.27277852e-03, -4.21604924e-02,
       -1.28834220e-02, -1.82824209e-02, 5.28789870e-03, 7.65611324e-03,
       -3.21793393e-03, -6.82768404e-01 ]
