%YAML:1.0
---
detector: !!opencv-object-detector-hog
   winSize: [ 64, 64 ]
   blockSize: [ 16, 16 ]
   blockStride: [ 8, 8 ]
   cellSize: [ 8, 8 ]
   nbins: 9
   derivAperture: 1
   winSigma: 4.
   histogramNormType: 0
   L2HysThreshold: 2.0000000000000001e-01
   gammaCorrection: 1
   nlevels: 64
   signedGradient: 0
   SVMDetector: [ -3.92560400e-02, -5.19620031e-02, -4.19485942e-02,
       -2.84283934e-03, -5.02907634e-02, -1.60588399e-02,
       -4.47494313e-02, -4.23075818e-02, -4.45239916e-02, 2.54350211e-02,
       -2.16412917e-03, 6.54428033e-03, 5.45364209e-02, -4.33851499e-03,
       1.49633605e-02, 1.07038300e-02, 2.18343269e-03, 1.09402342e-02,
       -7.27392128e-03, -2.27307016e-03, -2.92438939e-02,
       -1.38570443e-02, -7.40034692e-03, -1.73976589e-02,
       -4.08361293e-02, -6.76265685e-03, 9.64107271e-03, -1.28419613e-02,
       -1.56021910e-03, -2.30496255e-04, 3.13607603e-02, 2.17784494e-02,
       2.97551304e-02, -1.10333972e-02, 4.81500253e-02, 6.47325767e-03,
       -6.05644546e-02, -3.31321023e-02, -3.28408889e-02,
       -1.97196323e-02, -3.09979413e-02, -5.11429831e-02,
       -3.98781896e-02, -3.92645933e-02, -4.06790376e-02, 1.28116375e-02,
       5.77705503e-02, 6.37749061e-02, 6.81720152e-02, 3.66681702e-02,
       6.91037029e-02, 8.86765942e-02, 4.90620956e-02, 3.39901559e-02,
       -6.43151700e-02, -6.26867935e-02, -5.17145358e-02,
       -4.29803915e-02, -2.75823232e-02, -5.96240461e-02,
       -8.56771991e-02, -5.21028116e-02, -2.58792080e-02, 3.00332885e-02,
       1.38186961e-02, 3.02168652e-02, 4.89226542e-02, 2.41174754e-02,
       1.40874544e-02, 3.37060206e-02, 5.38250944e-03, -2.68163928e-03,
       -4.82628271e-02, -1.52954794e-02, -2.34860480e-02,
       -6.98710382e-02, -5.88830635e-02, -1.77953877e-02,
       -2.24610996e-02, 8.35890416e-03, -4.83120978e-02, 8.24999660e-02,
       9.23734158e-02, 6.33970797e-02, 3.69108170e-02, 2.52407920e-02,
       3.54179442e-02, 6.12735376e-02, 8.20964798e-02, 7.49475807e-02,
       -3.28428671e-02, -4.37429398e-02, -2.07349602e-02,
       -5.32148741e-02, -4.82646748e-02, -6.52507395e-02,
       -3.64048854e-02, -3.65395993e-02, -7.34645203e-02, 1.19159482e-02,
       3.28270197e-02, 4.79433015e-02, -1.80303399e-02, 8.06169119e-03,
       1.81064177e-02, 1.61324590e-02, 2.61834133e-02, 1.32121276e-02,
       2.57956292e-02, 2.21810304e-02, -7.26900529e-03, -2.84526311e-02,
       2.18595546e-02, 5.76319955e-02, 9.91061609e-03, 2.99310815e-02,
       1.07440939e-02, -1.85248011e-03, 2.52015460e-02, 2.50630081e-02,
       -2.25120839e-02, -9.12048817e-02, -4.68646251e-02, 1.02437781e-02,
       4.90549428e-04, -6.79153251e-03, 6.75260928e-03, 1.69587322e-02,
       -1.23475809e-02, -2.74073482e-02, 4.36591320e-02, 4.32559848e-02,
       -5.07292664e-03, 9.29677114e-03, 4.42143017e-03, -1.78821925e-02,
       3.75878103e-02, 1.16216503e-02, -6.88261446e-03, -2.22388506e-02,
       -5.71686998e-02, -1.13965068e-02, -3.75588574e-02,
       -4.51013260e-02, 4.27636206e-02, 1.45604638e-02, -1.40995756e-02,
       -2.88994685e-02, -3.34965289e-02, 5.34156598e-02, 1.81075875e-02,
       1.38108190e-02, 9.76806413e-03, -8.64793826e-03, -4.47611809e-02,
       -4.28605601e-02, -2.61499994e-02, -6.33727536e-02,
       -4.90703732e-02, -4.81600836e-02, -4.75451685e-02,
       -3.42458971e-02, 5.15723303e-02, 4.38745990e-02, 1.05096549e-02,
       5.44100627e-02, 5.83919324e-02, 8.87293443e-02, 5.21111675e-02,
       2.71088630e-02, 3.07333823e-02, -8.13284889e-03, -3.90471891e-02,
       -3.58095914e-02, -5.53777032e-02, -8.25787615e-03,
       -2.76948325e-02, -4.02863845e-02, -3.12368684e-02,
       -3.08757927e-02, 9.67607833e-03, -2.24725828e-02, 2.10799859e-03,
       2.29026191e-02, -3.35040689e-02, 3.31195965e-02, 1.64423529e-02,
       3.33730318e-02, 4.84728031e-02, -5.37005290e-02, -5.84636070e-02,
       -5.44430427e-02, -4.90190499e-02, -1.71322059e-02,
       -2.67925709e-02, -5.28923944e-02, -3.09191458e-02,
       -1.96697339e-02, 1.95456576e-02, 7.18779210e-03, 2.11224449e-03,
       3.41110304e-02, 1.45008648e-02, 4.37952653e-02, 5.14671579e-02,
       6.27499297e-02, 3.60290371e-02, -3.25110257e-02, -3.89711559e-02,
       -5.66657707e-02, -3.33917513e-02, 8.84463545e-04, -2.69505680e-02,
       -3.64315435e-02, -2.67819501e-02, -3.14422436e-02,
       -1.42557910e-02, -2.52746493e-02, -1.44671481e-02, 9.62860242e-04,
       4.92719002e-02, 1.02751032e-02, -3.42738698e-03, 7.88375735e-03,
       4.85078432e-03, -5.11008091e-02, -2.11606063e-02, -1.00891767e-02,
       9.84453503e-03, 2.56573074e-02, -7.45309070e-02, -3.49965356e-02,
       -1.59019064e-02, -2.64918152e-02, 1.73020214e-02, 1.13968700e-02,
       1.33043351e-02, 5.02385683e-02, 2.20469963e-02, 2.73742024e-02,
       8.62349663e-03, 1.48241585e-02, 2.20364705e-02, -9.53314640e-03,
       6.06187526e-03, -1.06414668e-02, -3.70057765e-03, 2.21979655e-02,
       -4.61140871e-02, -7.02036694e-02, -1.24358227e-02,
       -2.50758100e-02, -1.69996899e-02, -2.34706923e-02,
       -2.60011852e-02, -9.65990778e-03, 2.11612694e-02, 2.42933398e-03,
       -2.65968293e-02, -1.71629358e-02, 6.85460912e-03, -2.14498676e-02,
       -1.40039818e-02, 2.55821133e-03, 2.00336725e-02, 1.99837401e-03,
       6.20342616e-05, 2.94317864e-03, 2.66426913e-02, 2.13712081e-02,
       -4.08027954e-02, -3.56780179e-02, -2.72412878e-02, 1.39745101e-02,
       5.24387974e-03, -6.22939970e-03, -1.96945257e-02, -2.77708210e-02,
       -3.59028876e-02, -1.26517871e-02, -8.49866215e-03, 1.29400454e-02,
       5.01652621e-02, 1.47145009e-02, 5.04449417e-04, 5.17778844e-03,
       5.02193952e-03, -1.18713146e-02, -4.59916666e-02, -5.44865914e-02,
       -3.99251282e-02, -4.62067090e-02, -1.78092290e-02,
       -3.55149060e-02, -4.31498140e-02, -2.89336089e-02,
       -2.14937385e-02, 4.74079177e-02, 6.30569551e-03, 4.63833101e-03,
       3.32876965e-02, 1.61691208e-03, 3.88167985e-02, 8.62216651e-02,
       5.75815551e-02, 1.77610256e-02, -4.00213227e-02, -4.90416959e-02,
       -4.82368954e-02, -3.23990248e-02, -2.07387041e-02,
       -4.92958464e-02, -5.52677587e-02, -5.55596873e-02,
       -5.82368188e-02, 3.77007797e-02, 2.39833370e-02, 1.59247089e-02,
       5.50519191e-02, 1.08660590e-02, 3.07072178e-02, 5.31169772e-02,
       4.13502119e-02, 1.43825859e-02, -1.52588077e-02, -5.44185266e-02,
       -6.23164885e-02, -7.94283897e-02, -3.09875384e-02,
       -5.07694632e-02, 5.06019266e-03, -2.53705159e-02, -4.05817069e-02,
       1.71829369e-02, -9.76078399e-03, 2.48742308e-02, 2.82127373e-02,
       -6.39519095e-03, 4.62414660e-02, 6.17261752e-02, 2.86888462e-02,
       2.20727380e-02, -2.86110137e-02, -7.18688294e-02, -8.78326446e-02,
       -8.79526362e-02, -4.19305041e-02, -6.44863471e-02,
       -8.29582755e-03, -2.25709546e-02, -1.90038867e-02, 1.30109917e-02,
       9.59382951e-03, 5.95451035e-02, 2.88047399e-02, 2.47466024e-02,
       2.41797026e-02, 6.82774112e-02, 2.52826735e-02, 3.01860292e-02,
       -1.01645328e-02, -3.22586782e-02, -1.53970178e-02,
       -1.73269566e-02, 4.45192531e-02, 5.36309406e-02, -1.91442631e-02,
       -1.59828290e-02, -2.02497914e-02, -2.30367732e-04, 7.59183103e-03,
       -2.51707621e-03, 2.62238365e-02, 4.44634296e-02, 2.10306072e-03,
       -2.06957702e-02, -2.03183703e-02, -3.32627515e-03,
       -3.48189808e-02, -2.98091155e-02, 2.40556393e-02, 3.11356690e-02,
       3.38542648e-02, 2.46763863e-02, -2.23692711e-02, -6.77368864e-02,
       -4.26930338e-02, -1.81542188e-02, 1.53084716e-03, 2.60017328e-02,
       5.58036789e-02, 5.10085374e-02, -4.21450706e-03, -1.90841388e-02,
       -3.37428227e-02, -1.86980031e-02, 3.41181569e-02, -5.63948881e-03,
       -2.56016292e-03, 2.77849118e-04, 6.79558795e-03, 5.72877340e-02,
       1.45727862e-02, 2.44186670e-02, 5.42744212e-02, 3.81127262e-04,
       -6.27242401e-02, -3.14475782e-02, -2.25830376e-02,
       -5.23818433e-02, -5.28792292e-02, -6.41536564e-02,
       -3.62231657e-02, -4.01454046e-03, 1.90752074e-02, -2.17686687e-03,
       4.91072126e-02, 6.72067031e-02, 3.22256014e-02, 3.77163291e-02,
       9.63925123e-02, 7.80141279e-02, 5.47585301e-02, -3.15791741e-02,
       -4.64656129e-02, -2.81162001e-02, -1.78592615e-02,
       -3.81833799e-02, -3.37978415e-02, -4.15478908e-02,
       -6.64468706e-02, -2.87352577e-02, 2.45007370e-02, 9.82612651e-03,
       2.56466959e-02, 4.29412723e-02, -1.74862780e-02, 1.62113719e-02,
       1.15297316e-02, 1.83593463e-02, 3.98803502e-02, -1.99979357e-02,
       -4.20364849e-02, -4.34395708e-02, -3.23842317e-02,
       -3.44307199e-02, -3.57606746e-02, -4.67961840e-02,
       -6.42157346e-02, -9.58949607e-03, 3.82636599e-02, 4.42707576e-02,
       8.02344382e-02, 6.46613240e-02, -9.69528701e-05, 4.29453328e-02,
       4.55220640e-02, 3.89232635e-02, 8.71519819e-02, -7.79756606e-02,
       -5.31746894e-02, -3.99210602e-02, -4.39653657e-02,
       -3.79479565e-02, 3.44531541e-03, -3.85576785e-02, -3.94478366e-02,
       -2.41903290e-02, 3.81482914e-02, -1.48601702e-03, 1.62469633e-02,
       3.57995331e-02, 2.66805794e-02, 1.39311962e-02, 1.05206175e-02,
       -1.16185669e-03, 4.15640585e-02, 1.08681573e-02, -3.04055326e-02,
       -2.07084287e-02, 9.37411748e-03, 5.13482913e-02, -9.33174882e-03,
       -6.59703612e-02, -3.31593230e-02, -6.30570669e-03,
       -2.22023507e-03, 1.37698445e-02, 3.47780134e-03, 5.66882826e-03,
       -9.95777920e-03, 1.95459612e-02, 3.90581414e-02, 2.96033621e-02,
       2.69838218e-02, -1.13875503e-02, -1.82712860e-02, -8.27469602e-02,
       -2.44255550e-02, -2.49456428e-03, 5.51123638e-03, -1.23458104e-02,
       -6.04525441e-03, -1.86305714e-03, 5.44518651e-03, 5.94357587e-03,
       -3.19978893e-02, 1.74613693e-03, 2.41850726e-02, 1.63815990e-02,
       -1.57778859e-02, -2.49963049e-02, -2.33948119e-02, 4.04908471e-02,
       2.71090064e-02, 3.77188739e-03, 1.98741779e-02, 2.04690918e-02,
       3.14765275e-02, 4.33665402e-02, 2.53218226e-02, 8.59206822e-03,
       -4.79791276e-02, -1.96843352e-02, -5.41228130e-02,
       -1.09607484e-02, -1.55265201e-02, 9.51472949e-03, -9.46608558e-03,
       -1.72237940e-02, -2.32350901e-02, -2.99271271e-02,
       -2.00395435e-02, -1.93159003e-02, 3.22846547e-02, 9.18900780e-03,
       3.02890055e-02, 1.96259730e-02, -2.99513955e-02, -3.03263329e-02,
       -3.95353790e-03, -1.97020955e-02, -5.09499796e-02,
       -5.70232533e-02, -4.28481959e-02, -5.91186956e-02,
       -4.73695025e-02, -4.72243838e-02, -3.20892148e-02, 4.01402786e-02,
       1.35676134e-02, -1.50559777e-02, 5.42141907e-02, 1.10879848e-02,
       -2.15039589e-02, 2.25241631e-02, 3.86530347e-02, 4.38992903e-02,
       -5.86731397e-02, -4.22741510e-02, -5.74810617e-02,
       -6.69044554e-02, -5.47368415e-02, -7.53325373e-02,
       -5.31014130e-02, -6.16949126e-02, -7.40128905e-02, 3.71086188e-02,
       4.91744094e-02, 7.88733736e-02, 1.25255704e-01, 5.06377779e-02,
       6.32294863e-02, 4.12122943e-02, 6.06582314e-02, 2.89941989e-02,
       -2.94118654e-02, -2.51153242e-02, -6.38016835e-02,
       -6.33915439e-02, -2.36641094e-02, -5.19203991e-02,
       -2.35887878e-02, -8.99923779e-03, -2.91299392e-02, 2.51877438e-02,
       4.42870036e-02, 7.67250210e-02, 3.63311954e-02, 1.66102741e-02,
       -2.13163625e-02, 3.92445736e-02, 1.15823038e-02, 9.16977599e-03,
       -1.96512826e-02, -9.56608728e-03, -1.46607589e-02,
       -1.03124892e-02, 5.52946813e-02, -3.97575200e-02, -3.92736755e-02,
       -1.61820725e-02, -1.94945000e-02, 5.01923114e-02, 1.21472552e-01,
       1.29390836e-01, 1.19112134e-02, 4.07869630e-02, -7.42624700e-03,
       4.83367592e-02, 3.22388671e-02, 4.44894917e-02, 1.31485034e-02,
       2.64750309e-02, 6.88970461e-02, 9.53790545e-03, 5.21544460e-03,
       5.62645728e-03, 1.07502742e-02, -8.62217788e-03, 5.27233537e-03,
       5.33644482e-02, 4.45299745e-02, 6.65937066e-02, 2.29747202e-02,
       1.20004602e-02, -3.19136232e-02, 3.58750783e-02, 1.55679192e-02,
       3.35638747e-02, 1.93998571e-02, 5.99322282e-02, 4.11166251e-02,
       -2.61865202e-02, -5.08816587e-03, -1.98808908e-02, 1.82393976e-02,
       2.40818914e-02, 3.48324073e-03, 6.24600500e-02, 8.12190324e-02,
       4.34038155e-02, -1.68946274e-02, 4.14266251e-02, -1.43161342e-02,
       2.68551838e-02, 1.33582978e-02, 2.95914114e-02, 1.86261442e-02,
       1.62568241e-02, 4.25247177e-02, 1.27316648e-02, -6.76176772e-02,
       2.62777861e-02, 1.31686479e-01, 8.29506814e-02, 4.03285921e-02,
       -9.29820258e-03, -2.79639810e-02, -8.70111771e-03,
       -5.20234667e-02, -5.19445650e-02, -3.82434987e-02,
       -1.44624012e-02, -4.00375463e-02, -6.71186252e-03, 2.43671313e-02,
       5.24088331e-02, 4.88617457e-02, 3.60755250e-02, 2.32039951e-02,
       9.27178562e-02, 1.78682849e-01, 9.96703282e-02, 5.03918752e-02,
       -4.12092842e-02, -2.91203074e-02, -2.20349412e-02,
       -6.78198934e-02, -1.51064070e-02, -4.58027907e-02,
       -1.06549887e-02, -5.33351302e-02, -4.31508571e-02, 4.51886691e-02,
       5.16266152e-02, 8.56164917e-02, 4.26938646e-02, -1.76827237e-02,
       6.10155202e-02, 4.83747944e-02, 3.38080935e-02, 6.80192187e-02,
       -7.11557418e-02, -5.12776710e-02, -3.64674665e-02,
       -5.69511205e-02, 7.04700779e-03, -3.26030031e-02, -6.78225681e-02,
       -5.38235866e-02, -4.98121269e-02, 2.01460384e-02, 6.28512129e-02,
       5.51552139e-02, 5.12414575e-02, -1.64638143e-02, 4.25015539e-02,
       6.98717833e-02, -7.48625211e-03, 3.34585831e-02, -6.63143843e-02,
       -3.44723165e-02, -4.58190553e-02, -7.29604214e-02,
       -3.91700454e-02, -7.20795989e-02, -1.04523920e-01,
       -6.20446727e-02, -5.78582399e-02, -5.89994434e-03, 2.60953121e-02,
       1.47038782e-02, 8.91688187e-03, 6.32046387e-02, 3.79501656e-02,
       2.26344820e-02, 2.06531845e-02, -5.54231601e-03, -7.41975568e-03,
       -1.15532789e-03, -6.17520288e-02, -1.44237718e-02, 5.66370487e-02,
       1.60288103e-02, -2.06269156e-02, -1.50054246e-02, -1.04860719e-02,
       -5.96778700e-03, 4.79004122e-02, 3.37000638e-02, 1.46614434e-02,
       -1.90095534e-03, 3.83690596e-02, 1.45319523e-02, 1.64557453e-02,
       1.21275363e-02, -5.86349983e-03, 3.61141972e-02, -3.93303819e-02,
       -3.14452909e-02, -1.18689118e-02, 1.10019026e-02, -1.72394011e-02,
       -2.26394832e-02, -3.29164267e-02, -3.78139354e-02, 3.85166309e-03,
       -6.91460725e-03, 1.26327183e-02, 1.88453831e-02, 8.55837599e-04,
       4.69480874e-03, 2.55980249e-02, -3.40391137e-02, 5.38170105e-03,
       1.90408584e-02, 1.90495197e-02, 5.22073582e-02, 1.96286887e-02,
       1.94479320e-02, 1.54901790e-02, 1.56795196e-02, 2.28918172e-04,
       -1.32445656e-02, 3.69537584e-02, 1.40662165e-02, -2.63123395e-04,
       6.21315558e-04, -6.63245155e-04, -1.06133632e-02, 9.11736023e-03,
       -2.89447904e-02, 1.77818350e-02, 1.81593001e-02, 2.42971610e-02,
       3.54619697e-02, 1.58813540e-02, 4.00362648e-02, 1.54457390e-02,
       2.52459925e-02, 1.40511645e-02, -4.99369465e-02, -4.74387482e-02,
       -4.36248034e-02, -7.79614970e-02, -5.96733764e-02,
       -9.83802974e-02, -6.33450970e-02, -5.56984693e-02,
       -6.38546571e-02, 4.04278329e-03, -1.48285097e-02, 4.65126745e-02,
       1.16440974e-01, 7.55720511e-02, 7.33959898e-02, 3.59018333e-02,
       2.13159621e-02, 7.65957031e-03, -6.14136569e-02, -7.71848634e-02,
       -7.51002505e-02, -1.01055659e-01, -6.00274652e-02,
       -8.84234458e-02, -5.65848984e-02, -4.29703668e-02,
       -4.56886403e-02, 8.04140698e-03, -8.19702342e-04, 2.10675541e-02,
       3.50742452e-02, 2.72662453e-02, 9.31518674e-02, 5.96705116e-02,
       -9.06102639e-03, 9.21367761e-03, 8.53962172e-03, -3.18277031e-02,
       -3.62593010e-02, -2.87609156e-02, 2.21484937e-02, -1.58370789e-02,
       -3.35577615e-02, -1.82519164e-02, 1.55495964e-02, 2.48463526e-02,
       7.45816976e-02, 2.94351187e-02, 2.75156391e-03, 1.60299167e-02,
       -1.62486862e-02, 1.43842120e-02, 4.59749736e-02, 4.44029793e-02,
       1.38667366e-02, -2.89935470e-02, -4.21467498e-02, -4.49725799e-02,
       6.27460983e-03, -4.12464440e-02, -4.56836522e-02, -3.73080596e-02,
       1.20212622e-02, 4.48657237e-02, 3.78053710e-02, 1.08964788e-02,
       -3.03479470e-02, 1.31163811e-02, -2.84792576e-02, 2.59359367e-02,
       7.83906579e-02, 2.38137711e-02, 2.31919214e-02, 5.94718531e-02,
       1.54679893e-02, -4.52858731e-02, -2.60449145e-02, -4.49199900e-02,
       1.94354132e-02, 3.97436060e-02, 2.10797396e-02, 7.69724846e-02,
       8.48258287e-02, 2.98027452e-02, -2.44443193e-02, 1.69962998e-02,
       -4.88937832e-02, 1.90773271e-02, 1.27696497e-02, 5.78330904e-02,
       1.31012425e-02, 3.26817632e-02, 5.55223832e-03, -5.95375523e-02,
       -1.50902513e-02, -6.77434951e-02, 2.32359003e-02, 7.03002810e-02,
       2.61066630e-02, 5.75074069e-02, 1.94414742e-02, 9.04056150e-03,
       -6.67696744e-02, 1.44686988e-02, -5.13757654e-02, 1.90848317e-02,
       8.57477039e-02, 8.11374784e-02, 2.57122014e-02, 2.38382500e-02,
       4.08728160e-02, 2.65628733e-02, -1.27144485e-05, 1.06819250e-01,
       9.80434865e-02, 1.72054376e-02, 3.07972655e-02, -4.67331298e-02,
       -5.66765964e-02, -4.58778292e-02, -7.16379583e-02,
       -1.53240170e-02, -1.61405522e-02, -1.69363804e-02,
       -4.99126464e-02, -4.29934077e-02, 2.87163015e-02, 2.86538713e-02,
       9.81114954e-02, 8.20713267e-02, 4.56815818e-03, -1.47550516e-02,
       2.52743252e-02, 3.37164998e-02, 3.09340954e-02, -4.15329114e-02,
       -4.79403548e-02, -1.95895489e-02, -3.79372239e-02,
       -2.09872145e-02, -8.89090672e-02, -4.89619039e-02,
       -5.11716194e-02, -4.59174663e-02, 1.38888797e-02, 1.36722913e-02,
       3.09289154e-02, 6.05938323e-02, 2.95725353e-02, 9.90839303e-02,
       6.25841990e-02, 9.45169386e-03, -1.77679723e-03, -5.22704422e-02,
       -4.47922759e-02, -6.96132332e-02, -8.18530321e-02,
       -2.15689056e-02, -8.84800106e-02, -8.54328871e-02,
       -5.49272224e-02, -6.85723051e-02, 9.42840055e-03, 1.50156561e-02,
       6.51982427e-02, 7.72552714e-02, 6.27439376e-03, 4.49234471e-02,
       3.05653028e-02, 1.94625054e-02, 1.85035355e-02, -6.29990920e-02,
       -5.15289679e-02, -9.46325138e-02, -9.17468742e-02,
       -6.09990396e-02, -7.33733103e-02, -7.00161234e-02,
       -4.07707989e-02, -5.50941527e-02, 1.14190497e-03, 2.66079679e-02,
       -1.10422894e-02, 4.43710759e-03, 7.87855778e-03, 1.61219705e-02,
       -8.99853837e-03, 8.65296461e-03, 1.10414810e-03, 7.43688690e-03,
       5.38527500e-03, -5.47091365e-02, -2.54993793e-02, 3.99337988e-03,
       7.90808070e-03, -4.53566797e-02, -2.20992882e-02, 7.26581085e-03,
       2.67303525e-03, 7.39746680e-03, -4.97345068e-03, 2.57928260e-02,
       -1.03386892e-02, 9.14836582e-03, 6.54053409e-03, 4.00298610e-02,
       8.24836490e-04, 4.47055791e-03, -2.45663971e-02, -5.06090410e-02,
       3.39369028e-04, 6.25764718e-03, -3.09899133e-02, -6.49249777e-02,
       -7.24620372e-03, 4.32079798e-03, -2.83853523e-02, -1.36594009e-02,
       -8.00015498e-03, 1.01427520e-02, -1.68197192e-04, -9.62778740e-03,
       -4.04520631e-02, -1.47151854e-02, -4.93921451e-02,
       -3.21676098e-02, -2.41227113e-02, 1.88262258e-02, 4.04552035e-02,
       -2.24949094e-03, 1.46220746e-02, -2.39046048e-02, -2.89682560e-02,
       -2.57693101e-02, -1.70875378e-02, -1.27918823e-02,
       -1.53250638e-02, 1.37257306e-02, 1.38666555e-02, 5.05682686e-03,
       -3.29098441e-02, -4.04595537e-03, -3.05565074e-03,
       -4.99808276e-03, 2.81700175e-02, 4.16517109e-02, 2.52550766e-02,
       2.17042677e-02, 1.23872645e-02, 1.90018397e-02, 2.23637354e-02,
       2.53066532e-02, -6.19750954e-02, -5.66816181e-02, -4.51156050e-02,
       -6.03415146e-02, -3.30812484e-02, -6.90065026e-02,
       -5.14556654e-02, -3.97007801e-02, -4.64658663e-02, 1.44390035e-02,
       4.63653095e-02, 4.26854528e-02, 4.24602255e-02, 8.04724172e-02,
       1.39627919e-01, 8.47072154e-02, 4.19575609e-02, 2.49501597e-02,
       -3.65825929e-02, -5.03844693e-02, -4.80903871e-02,
       -6.69212937e-02, -4.23695706e-02, -7.53274187e-02,
       -5.32267541e-02, -3.38019952e-02, -6.33960636e-03, 4.61041704e-02,
       4.77624089e-02, 2.84341294e-02, -3.27583551e-02, 7.46829808e-03,
       5.80873080e-02, -1.78928953e-02, 5.20209922e-03, 4.69160900e-02,
       -2.05124915e-02, -1.92684215e-02, -3.98131050e-02,
       -5.04630283e-02, 6.02371357e-02, 7.55588245e-03, -2.40865871e-02,
       -2.70615201e-02, -3.11326329e-02, 3.64416316e-02, 3.83970961e-02,
       6.16923682e-02, 2.57387944e-03, 4.92430143e-02, 4.17216904e-02,
       1.33431673e-01, 1.06680483e-01, 5.03833555e-02, -3.26325148e-02,
       -1.70580950e-02, -3.03867515e-02, -5.62912002e-02,
       -3.57942767e-02, -6.97476342e-02, -8.82541388e-02,
       -4.22604457e-02, -3.38140614e-02, 2.02643573e-02, 2.44177952e-02,
       4.36184704e-02, -3.90751138e-02, 1.42088132e-02, 1.52558004e-02,
       7.98100606e-02, 2.98707932e-02, 2.24176962e-02, -4.77548398e-04,
       3.16663906e-02, 3.07267774e-02, -6.78642711e-04, -2.95315101e-03,
       -1.46350004e-02, 4.29587737e-02, 4.90308814e-02, 1.56424548e-02,
       2.74242871e-02, 2.24739499e-02, 3.46305631e-02, 5.58842253e-03,
       2.97642499e-02, 5.09591494e-03, 6.42517507e-02, 8.12821463e-02,
       6.90585449e-02, 1.31685371e-02, 2.50415574e-03, 1.09842550e-02,
       1.36897212e-03, 8.98207072e-03, -7.20346253e-03, 7.53833205e-02,
       1.86345391e-02, 1.40623953e-02, 4.78549004e-02, 2.34990399e-02,
       2.99330335e-02, -4.65206355e-02, 1.48726925e-02, 1.52764590e-02,
       6.24034777e-02, 3.89455035e-02, 6.19764589e-02, 5.05231284e-02,
       1.07209869e-01, 1.68623015e-01, 9.70198587e-02, 7.62572000e-03,
       3.47926281e-02, 5.44156283e-02, 5.14618978e-02, 3.32568847e-02,
       -4.04117070e-02, -4.80032675e-02, -7.60724593e-04,
       -3.30410749e-02, 4.34889970e-03, -4.81595397e-02, -1.26026049e-02,
       -2.01058071e-02, -3.54589224e-02, 6.20757043e-02, 9.92782414e-02,
       1.24065034e-01, -6.71174563e-03, -5.31145334e-02, -1.61652528e-02,
       4.46933247e-02, 2.86958292e-02, 3.34914364e-02, -4.23610071e-03,
       -4.07695770e-02, -2.26762462e-02, -4.63404767e-02,
       -3.98584753e-02, -5.88573627e-02, -1.03026498e-02,
       -2.04921011e-02, -7.87545089e-03, 2.49315109e-02, -6.17795717e-03,
       6.45512044e-02, 5.62327504e-02, 2.04084087e-02, 5.73276170e-02,
       5.55365421e-02, 5.21365441e-02, 5.66648087e-03, -4.87948842e-02,
       -5.32995313e-02, -9.38814059e-02, -6.36541843e-02,
       -2.42078342e-02, -5.79393171e-02, -3.47660333e-02,
       -2.73051821e-02, -7.22906888e-02, 7.68641159e-02, 2.74997335e-02,
       4.76215631e-02, 4.16066982e-02, -1.52834309e-02, 3.46383043e-02,
       7.97401667e-02, 6.17739111e-02, 5.33025265e-02, -4.88627888e-02,
       -6.87866211e-02, -7.02957138e-02, -3.47974934e-02,
       -2.27698069e-02, -5.79757057e-02, -5.01038209e-02,
       -5.27724922e-02, -6.95113838e-02, -2.64273654e-03, 1.28371390e-02,
       2.03911085e-02, 4.02616821e-02, 2.47091204e-02, 1.81019157e-02,
       3.78002077e-02, 4.80512567e-02, -1.68843046e-02, -4.36789505e-02,
       -3.09931394e-02, -1.75427180e-02, 7.90960807e-03, 2.47676801e-02,
       -2.25586668e-02, -4.80208285e-02, 2.25563645e-02, -9.98122990e-03,
       -4.60106367e-03, 1.67397223e-02, 2.80811675e-02, 4.06296216e-02,
       5.47988452e-02, 1.96385514e-02, 1.31613100e-02, 2.92295534e-02,
       -4.59382217e-03, 9.96745937e-03, -1.41534070e-02, -2.43166592e-02,
       1.33531094e-02, 3.24543715e-02, -1.46103241e-02, -8.29005241e-02,
       -9.42887831e-03, 6.59438432e-04, -2.96091828e-02, -2.31498200e-02,
       -2.06664875e-02, -6.16036821e-04, 6.15565944e-03, -2.99806800e-03,
       -2.80016214e-02, -3.39788198e-02, -2.76832003e-02,
       -2.07135919e-02, -4.58334386e-03, 5.24286786e-03, 1.74272750e-02,
       3.35922162e-03, 3.48659866e-02, 2.22198050e-02, -1.50967035e-02,
       -2.27928907e-02, -8.47435964e-04, -1.55886281e-02,
       -3.30463275e-02, 2.93657626e-03, -9.97490808e-03, -1.47156138e-02,
       -3.12849246e-02, -2.75827218e-02, -1.26696751e-02, 7.89545104e-03,
       3.78748700e-02, 9.71487630e-03, 9.59261134e-03, -1.28472643e-03,
       2.62398701e-02, 3.04422993e-03, -1.77476555e-02, -2.30939798e-02,
       -5.59102222e-02, -4.51228805e-02, -3.74311320e-02,
       -2.70546451e-02, -1.71087235e-02, -2.57396381e-02,
       -4.89246137e-02, -5.68092093e-02, -3.74042913e-02, 1.38278641e-02,
       4.48520929e-02, 5.19762523e-02, 3.74337174e-02, 1.52834477e-02,
       6.55640438e-02, 3.38337012e-03, 1.16772596e-02, 3.42670381e-02,
       -2.57643852e-02, -2.69236155e-02, -4.27541584e-02,
       -3.47631797e-02, -2.77338475e-02, -4.85581309e-02,
       -4.08400595e-02, -6.15202002e-02, -4.77468930e-02, 1.48508567e-02,
       5.88180125e-02, 6.51718304e-02, 3.39973532e-02, -5.93181001e-03,
       2.98345927e-02, 9.97187477e-03, -2.20206031e-03, 5.24886400e-02,
       -7.37487990e-03, -1.52316410e-02, -3.51016619e-03,
       -5.64926714e-02, -6.73827976e-02, -8.47884640e-02,
       -9.00374874e-02, -6.53428212e-02, -1.37219215e-02, 3.11216302e-02,
       3.83392572e-02, 8.32657218e-02, 5.95703423e-02, 3.06563582e-02,
       4.95057330e-02, 6.10008948e-02, 3.41745326e-04, -3.08487652e-04,
       -4.86839488e-02, -2.78947894e-02, -1.47137009e-02,
       -5.54811321e-02, -3.33747678e-02, -9.64589491e-02,
       -6.25215322e-02, -6.22989759e-02, -2.13702209e-02, 2.24217530e-02,
       2.83998083e-02, 4.99152839e-02, 1.58225931e-02, -6.69438718e-03,
       1.88216157e-02, 3.04456819e-02, -8.03715922e-03, 1.76173821e-02,
       -4.06047292e-02, -5.97244613e-02, -2.11364441e-02, 5.73749281e-02,
       4.00041342e-02, 4.30605672e-02, 2.74054576e-02, -3.16978171e-02,
       -2.65250131e-02, -4.63697826e-03, -3.01703718e-02,
       -1.15759950e-02, 2.61678919e-02, 5.41551188e-02, 6.75495863e-02,
       3.22970152e-02, 3.33788712e-03, -3.61949252e-03, -2.06832085e-02,
       -1.28807519e-02, -2.86990181e-02, 3.48864980e-02, 3.48410159e-02,
       -3.23108472e-02, -1.30204745e-02, -3.23416032e-02,
       -1.08704465e-02, -1.65261980e-02, -3.38768438e-02,
       -2.57949680e-02, -2.82790661e-02, 3.80956493e-02, 1.95081234e-02,
       1.23209925e-03, 1.31304115e-02, -6.11525401e-03, 5.89594170e-02,
       7.07819834e-02, 9.73967910e-02, 4.64272127e-02, 2.62874104e-02,
       7.42189214e-02, 4.23672833e-02, 4.79468890e-03, 1.83195118e-02,
       -2.31110752e-02, -5.94443306e-02, -4.34242710e-02,
       -2.56902184e-02, -2.80304607e-02, -1.74973346e-03,
       -1.88482590e-02, -3.67467739e-02, -2.23665293e-02, 4.80190404e-02,
       1.50219733e-02, 1.84232332e-02, 3.51649635e-02, 5.42735495e-03,
       -4.78182267e-03, 1.28692784e-03, 8.06851126e-03, 4.11308371e-02,
       -1.35996277e-02, -3.44453529e-02, -6.32706210e-02,
       -7.64804110e-02, -7.37182796e-02, -3.42999324e-02,
       -4.71259803e-02, -6.60362840e-02, 6.82791555e-03, 8.83265883e-02,
       3.76278907e-02, 4.56496850e-02, 5.99966571e-02, 1.76356342e-02,
       7.17832968e-02, 6.93895444e-02, 3.65303680e-02, 4.07928713e-02,
       -1.87408496e-02, -3.48007903e-02, -2.41148844e-02, 6.60338206e-03,
       -9.29201767e-03, -4.43806984e-02, -4.55657467e-02,
       -4.85427193e-02, -6.18983544e-02, 4.72953059e-02, 3.19534503e-02,
       2.11431831e-02, 1.05221355e-02, -2.66631655e-02, 4.24708724e-02,
       1.27962958e-02, 1.52842272e-02, 2.53977478e-02, -1.57588236e-02,
       -6.01920076e-02, -5.21563813e-02, -4.59303819e-02,
       -5.75997122e-02, -3.98994796e-02, -6.03238866e-02,
       -4.29524444e-02, -1.86112672e-02, 2.17995159e-02, 2.01956257e-02,
       3.45946886e-02, 2.49721482e-02, 1.61764938e-02, 5.64103853e-03,
       -8.16567335e-04, 1.65796615e-02, 2.35720794e-03, -1.31990947e-03,
       -1.14385476e-02, -1.50461718e-02, 1.39508059e-03, 1.08279074e-02,
       -1.76319685e-02, -7.12637901e-02, -2.08313372e-02,
       -1.67095792e-02, 3.84317525e-02, 4.04096761e-04, 2.46071648e-02,
       2.20895708e-02, 2.14071553e-02, 3.41531597e-02, 8.07467755e-03,
       3.24133388e-03, 5.08392192e-02, -4.56564175e-03, -3.51485647e-02,
       -6.82430416e-02, -2.06377804e-02, 4.40569296e-02, 1.37452167e-02,
       -1.35771884e-02, -2.06666552e-02, 1.39639713e-02, 5.72709786e-03,
       -7.33174570e-03, -3.22990790e-02, -7.30996532e-03,
       -9.96409543e-03, -7.26816570e-03, -2.83257011e-02,
       -9.87340696e-03, -8.64687376e-03, 1.20953470e-02, 4.13659103e-02,
       -2.35334388e-03, 3.90817635e-02, 1.59973837e-02, 2.63455063e-02,
       -9.05662382e-05, 8.84774199e-04, -1.19849527e-02, -4.76177409e-02,
       -3.81525569e-02, -5.26331104e-02, -2.02241912e-02,
       -7.84329325e-02, -1.12128742e-02, -5.81267402e-02,
       -4.60447781e-02, -4.46147658e-02, 1.39586162e-02, -1.42193050e-03,
       8.80248938e-03, 2.23223120e-02, -2.28246883e-03, 4.34588864e-02,
       6.64280355e-03, 1.56876743e-02, 3.72311398e-02, -2.64894795e-02,
       -4.54856828e-02, -7.30367601e-02, -5.94843775e-02,
       -1.83213446e-02, -4.19568233e-02, -4.27564606e-02,
       -5.03328703e-02, -6.33378774e-02, -2.35917103e-02, 7.34666362e-03,
       2.89809238e-02, 1.40968766e-02, 2.34337747e-02, 5.96530363e-02,
       3.17066982e-02, 1.28433490e-02, 5.43651218e-03, -4.62183654e-02,
       -5.14248945e-02, -4.75171395e-02, -6.23632781e-02,
       -2.88951565e-02, -3.47807482e-02, -3.23125310e-02,
       -2.58357525e-02, -5.60539365e-02, 3.50821428e-02, 5.20015396e-02,
       8.58813822e-02, 5.85952811e-02, 4.14277911e-02, 6.06848747e-02,
       5.87553456e-02, 5.77155575e-02, 4.35078423e-03, -8.00975412e-02,
       -2.44583469e-02, -2.15708744e-02, -5.36080189e-02,
       -3.81528810e-02, -4.19173315e-02, -6.47863047e-03,
       -3.38565819e-02, -3.66875976e-02, 7.68528692e-03, 2.80868318e-02,
       2.73888856e-02, 2.88249720e-02, 1.75005868e-02, -1.63472127e-02,
       4.71185036e-02, 3.65429409e-02, 5.21148741e-03, -5.17180376e-02,
       9.55975987e-03, -2.08760817e-02, -2.68734768e-02, -5.78306466e-02,
       -7.81030580e-02, -3.17343697e-02, -1.69985276e-02,
       -5.45063466e-02, 6.53014630e-02, 6.09810427e-02, 6.19107299e-02,
       2.07212288e-02, 2.13521719e-02, 3.00400145e-02, 6.70042261e-02,
       8.00080299e-02, 8.03233683e-02, 5.28221438e-03, 1.23241860e-02,
       5.34052448e-03, 7.36227632e-02, 4.31954116e-02, -2.42463928e-02,
       -7.20771542e-03, 2.54304949e-02, 1.47545841e-02, -4.64592315e-02,
       -3.89475934e-02, 4.12525237e-03, -2.59594545e-02, -1.51354680e-02,
       -5.65260369e-03, 2.10560914e-02, 4.80060391e-02, -6.41797902e-03,
       1.81890968e-02, 2.71168426e-02, 1.40010696e-02, 5.37688509e-02,
       1.33592691e-02, -3.89017574e-02, -8.31204560e-03, 2.43105162e-02,
       4.24877927e-02, -1.45852258e-02, -7.85483513e-03, 1.86657091e-03,
       -5.98471723e-02, -1.17685847e-01, -3.67171578e-02, 1.35923633e-02,
       1.74483582e-02, -6.87872805e-03, 3.17407958e-02, 2.24657208e-02,
       5.53593747e-02, 8.27009976e-02, 5.17685413e-02, 5.92380315e-02,
       1.51316030e-02, 5.73242120e-02, 5.83243370e-02, -1.61671005e-02,
       -2.37991139e-02, -2.54819468e-02, -1.69319417e-02,
       -5.44057786e-03, -3.22443284e-02, -2.83218771e-02,
       -2.80920342e-02, -2.44496926e-03, 1.59763843e-02, 2.53499281e-02,
       3.28537226e-02, 5.73196411e-02, -3.11038774e-02, -2.08294000e-02,
       -2.08090115e-02, 1.20651331e-02, 5.60462512e-02, -3.56403887e-02,
       -4.91654947e-02, -5.10952771e-02, -4.53758687e-02,
       -5.68302311e-02, -3.45734507e-02, -5.27337939e-02,
       -4.60699908e-02, -1.04452139e-02, 4.84850407e-02, 6.26012832e-02,
       5.37916496e-02, 6.25741482e-02, 1.41031407e-02, 4.74244729e-02,
       5.89000992e-03, 1.16986521e-02, 1.52928596e-02, -2.33130455e-02,
       -1.84442457e-02, -3.36364955e-02, -2.14459561e-02, 1.76086556e-02,
       -2.69391350e-02, -5.36993071e-02, -3.70280147e-02,
       -4.29561175e-02, 5.52836731e-02, 3.36535946e-02, 2.40000058e-02,
       3.83857936e-02, -4.98420447e-02, 1.57507230e-02, 9.00221616e-03,
       -7.20191933e-03, 5.78890136e-03, -3.45620662e-02, -4.27059792e-02,
       -5.13528772e-02, -1.06704775e-02, -2.76030395e-02,
       -5.22433817e-02, -6.71511441e-02, -6.53201789e-02,
       -7.34548345e-02, 2.12073643e-02, 2.05117501e-02, 1.11737121e-02,
       3.17431465e-02, 4.40969095e-02, 4.18846123e-02, 1.30814351e-02,
       2.00304464e-02, 1.70753933e-02, -1.04364771e-02, -2.75290804e-03,
       -4.92629334e-02, -2.60574836e-02, 2.34093592e-02, -5.48029970e-03,
       -4.22267010e-03, 1.42457495e-02, -6.08218508e-03, 1.58971995e-02,
       1.90401822e-02, -6.48813508e-03, 1.69131793e-02, 2.28955001e-02,
       -3.53548257e-03, -2.26301644e-02, -2.01070588e-02,
       -1.19913248e-02, -1.65655129e-02, -1.09426044e-02,
       -3.51728685e-02, -7.57822916e-02, -3.07442877e-03, 4.94291913e-03,
       -8.73212423e-03, -9.50343814e-03, -4.98851649e-02,
       -9.38398480e-01 ]
